6953 30
tres 0.7115059 0.57897985 -0.16778117 -0.05515634 -0.5089264 -0.19612359 -0.3116929 -0.4067102 0.16383359 -0.2653286 -1.0519066 -1.1809247 -1.5118575 -0.5127434 -1.2171353 -0.22640002 0.40756753 -0.0036546348 0.311632 -0.5793655 -0.54691136 1.4123316 0.5522488 -0.03417285 0.5843821 0.37465605 -0.31154615 0.48808408 0.646051 -1.1880596
seis 0.70293874 0.9874537 -0.040796798 0.09216518 -0.8112409 -0.34354177 -0.5284527 -0.77341956 0.12119291 0.10602313 -1.1427109 -1.4351221 -1.6417499 -0.69156826 -1.6925635 -0.5297251 0.5122169 -0.28944713 0.57943237 -0.39420813 -0.5543629 1.6313109 0.6700907 -0.04757781 1.1098014 -0.019879054 -0.15137321 0.29384953 0.70928204 -1.2662078
cuatro 0.7329021 0.7192811 -0.12220747 0.06341141 -0.5716763 -0.2895362 -0.28483877 -0.08675294 0.28160933 -0.16905597 -0.89421034 -1.3869146 -1.431038 -0.47211334 -1.4766434 -0.07557556 0.47023696 -0.5101927 -0.07214818 -0.4881222 -0.63976103 1.8032793 0.78659725 -0.20984271 1.0959117 0.0012780875 -0.12522613 0.45864746 0.8344206 -1.913312
treinta 0.89079946 0.8544852 0.11032553 -0.0989201 -0.77205765 -0.4982332 -0.2580682 -0.4531776 0.18633121 -0.15155722 -0.8555801 -1.2432142 -1.5634903 -0.5618019 -1.448386 -0.6528857 0.48700616 -0.3564022 0.2958235 -0.42197716 -0.46764767 1.8608794 0.5598475 0.15430151 1.3838273 0.29879987 -0.14803371 0.4409252 0.5044046 -1.5538774
cinco 1.1151453 0.7754726 -0.044157974 -0.009243968 -1.0240604 -0.14720757 -0.5524199 -0.750944 0.17325464 0.019596953 -0.82062495 -1.3461374 -1.3784988 -0.7230774 -1.3809595 -0.20111589 0.6183641 -0.17368232 0.4726768 -0.15153152 -0.8435485 1.5307527 0.7246146 0.19986 1.2227447 0.14993952 0.01640786 0.40523535 0.6641506 -1.3837072
siete 1.0944308 1.0658802 0.16499573 -0.19647317 -0.7924943 -0.16527714 -0.42913985 -0.43783563 0.2774518 0.12936254 -0.8556039 -1.5447224 -1.6278998 -0.7011954 -1.6326443 -0.34574842 0.66995394 0.0088471 0.41565138 -0.55519706 -0.7125988 1.7188637 0.8379166 0.20455529 1.3312365 0.008889044 -0.24553017 0.32151073 0.72597945 -1.6377623
ocho 1.2260247 0.91799396 -0.21789907 -0.12011443 -0.68034834 -0.31670922 -0.4557784 -0.7480891 0.04218888 0.20934351 -1.2684019 -1.3390872 -1.5605549 -0.85869503 -1.5528585 -0.2260638 0.6137057 0.06365297 0.60643405 -0.15257071 -0.8927207 1.5957407 0.9340019 -0.37184036 1.229409 0.05043273 -0.42258278 0.6343173 0.8765762 -1.4872276
noventa 1.2112776 1.1236752 0.032411173 0.1636127 -0.7940957 -0.23620446 -0.6264049 -0.84429055 0.16305065 0.1592132 -1.137072 -1.293452 -1.3248379 -0.85066205 -1.7123706 -0.127978 0.43502247 0.30703035 0.8625497 -0.40961784 -0.5253979 1.9390626 0.60480917 -0.19352451 1.1947718 0.4049595 -0.86410475 0.16753046 0.5002045 -1.2892574
ochenta 0.8345011 0.60545725 0.18916498 0.16078421 -0.8055772 -0.24484153 -0.49178278 -0.93518955 0.37975588 0.26862943 -0.8692797 -1.1450762 -1.5010242 -1.4019942 -1.7849333 -0.52539897 0.60480654 -0.2803463 0.48729217 -0.5037205 -0.3668681 1.1331322 1.0885105 -0.17443846 1.4531571 0.22543691 -0.3968297 0.20670673 1.0420611 -1.1912602
desde -0.3708517 -0.35296768 -0.4924748 -0.80157423 -0.10074911 0.354596 1.224084 0.19615509 0.11516447 0.07105611 -0.23704857 -0.84295 -1.1989084 0.52629304 0.11088663 -1.162377 0.17247294 -0.6661796 -0.5107181 -0.25140604 0.24460062 0.23202023 0.12186639 -0.06896463 0.068726525 -0.13395508 -0.10854395 0.13929388 -0.33680168 -0.15815598
trece 1.0232854 1.0629643 -0.5792791 -0.7744229 -0.61204374 -0.4636114 -0.17737389 -0.6393852 0.71316636 -0.25518134 -0.45978045 -1.1023481 -1.478041 0.27189657 -1.30692 -0.6415013 0.08047405 -0.7810925 -0.5344807 -0.8536072 -0.46815833 1.9939321 0.37724018 -0.16278408 0.7052435 0.2766657 0.38208985 0.727789 0.8192348 -1.4202554
veinte 0.0921463 1.3566717 -0.10128247 -0.22445486 -0.5295041 -0.027959066 -0.050788976 -0.10147278 -0.1951 0.2671166 -0.7170532 -1.6063 -1.0641599 0.30039865 -0.43635568 -1.0080516 0.2409862 -0.1321115 0.2965749 -0.26819688 -0.22477452 1.4537437 0.34933218 0.026124364 0.66259056 0.6555017 -0.5528153 -0.06418673 -0.28321812 -1.2397124
dice 0.12758225 -0.23218115 -0.52012527 -0.47777438 0.50261414 0.09078145 0.2500009 0.09219752 0.1063882 -0.30098674 0.32233343 0.011236299 -0.5414557 -0.4315524 -0.029562904 -0.3267675 -0.2135316 -0.8345162 -0.36604166 -0.14765407 -0.5156293 -0.095492564 -0.04613617 0.02333265 -0.87179065 0.029837172 -0.12535352 0.09015028 -0.45480004 0.7199265
quince -0.15811296 1.2318283 0.11760468 0.27459028 -1.3151385 -0.3930272 0.38349402 -1.1536267 -0.21913937 -0.35462815 -1.0756434 -0.8870654 -0.38627693 0.5685156 -0.21858366 -1.0285487 0.091324 0.050689157 0.8804998 -0.23232266 -0.68655473 1.4024229 0.08812713 0.065328375 0.23696898 0.8945271 -0.8746963 -0.42837968 -0.26890042 -1.1262584
estado -0.8372257 1.5535331 0.049553044 0.27562383 1.1531426 -0.41832536 0.4524742 0.42338324 1.0409986 -1.0611143 -0.64823884 -1.7946564 0.11985375 0.7305595 -0.08357086 -0.9928506 0.041059766 0.3423491 -0.039223775 -0.15367837 -1.0213153 -0.46045867 -0.2958194 -0.07811303 3.149426 -3.0649931 -0.5212482 0.19640614 0.63649035 1.5446862
doce 0.504909 0.93217343 0.16198057 -0.3578649 -0.219309 0.1870999 -0.32757562 0.22256853 0.5312302 -0.010527371 -1.0732952 -1.2113165 -1.7020972 -0.436821 -0.7312829 -0.5700015 0.707902 -0.9766621 -0.10399823 -0.4760354 -0.3188991 1.492702 0.46072364 -0.022939062 0.41800904 0.278775 -0.19529045 0.09927572 0.6294474 -1.6135356
once 0.94416684 0.49437135 -0.21207316 -0.15365343 -0.13415034 -0.17617792 -0.51138014 -0.40607387 0.34565902 -0.22333503 -0.64404446 -1.1877475 -1.2087367 -0.24813265 -1.0129045 -0.59264606 0.8349419 -0.37626666 0.08449949 -0.63457614 -0.14894007 1.1953914 0.5689153 -0.38883314 1.0742143 0.23940253 -0.52218366 0.7602882 0.98139745 -1.9823833
mes -0.075294144 0.4773496 -0.3823143 -0.98914915 -0.08427972 0.563953 1.3249401 0.17405894 0.26123244 0.14191067 -0.96436554 -1.2098716 -2.4691765 0.28774178 -0.49302232 -1.319819 -0.2728334 -1.2599648 -0.5564088 -1.2056478 0.50091505 1.558142 0.005224327 0.06154955 0.31862134 0.18814369 -0.11356907 0.82285416 0.20702705 -1.3543172
vamos -0.19490935 0.11737404 0.13642217 -0.9481188 0.23145248 -0.19177167 0.09752035 -0.16521153 0.28455645 -0.826346 0.39301085 -0.7881314 0.4422629 0.95929646 -0.1430016 0.15694106 0.6035557 -1.8644739 -0.27736005 -0.22403108 0.2867101 0.60632133 0.12056707 0.11631604 -0.095869124 0.008758271 -0.31795335 0.14399168 -0.41537 1.2984059
complementario 0.41202724 2.0048993 0.9729421 -0.19586982 0.1332242 -0.4910678 0.5050202 0.5588366 1.5942489 -1.6339144 -0.09732077 -0.953858 -0.20963441 1.1964663 1.0077995 -1.3976763 0.11238711 -2.1164896 -1.0825845 -1.0173652 -0.72205913 -0.093883105 -0.03336927 -0.10947972 2.4285264 -1.068254 0.60162187 0.34863332 -0.52893245 1.3138087
esto -0.5113746 -0.015906878 0.063915946 -0.29499444 -0.05448828 -0.026135815 0.5924954 0.16001946 0.0265266 -0.14015159 0.8078654 -0.27976176 -0.6916933 0.15289025 0.90268636 0.052056216 0.12814923 -0.34572825 -0.20230982 0.035342775 0.35634804 0.28204763 0.047230784 -0.047404017 -0.43016753 0.14288759 0.11537736 -0.39924976 -0.32274106 0.061070863
estan -0.2773041 0.20556016 -0.4391826 0.08215442 1.2053026 -0.12862074 0.6582974 0.57799786 0.079877764 -0.33857343 0.7279892 -0.48680344 0.6540613 -0.30827338 0.28682336 -0.111537635 -0.33237076 -0.99002504 -0.0069557824 -0.3615838 0.29185063 0.08548564 0.46432236 -0.1641869 -0.8274099 0.07348875 -0.30828872 0.17642507 -0.43723032 0.9460291
creo 0.17296591 0.3403082 -0.44088283 -0.5404275 0.104534 0.12646326 0.26964372 0.014998826 -0.17592308 -0.5453165 0.6043453 -0.06641436 -0.3733279 0.39790025 0.26025832 -0.11908447 0.113953695 -0.33691207 -0.091858655 0.027533786 0.11493579 -0.05741991 0.10501555 -0.19087252 -0.4724568 0.25802794 -0.07679458 -0.3080772 -0.20260704 -0.020174516
soporte -0.42068708 -0.04908201 -0.16425161 -1.3052826 1.0965841 -0.40244627 0.9883161 1.3263223 -0.057673406 1.042815 0.28940332 -2.8590424 1.815342 0.49204642 1.8231456 -0.88757855 1.161273 -1.3388339 1.0237706 1.584775 0.7673539 0.048071057 -0.74098307 0.15486763 -0.96107805 1.2607197 -1.7080344 0.2408804 -0.51800865 1.7580793
aqui -0.4227302 -0.36788952 -0.07117503 -0.7064734 0.17057918 -0.19682719 0.11124826 0.1883577 -0.09671724 -0.087631084 0.5331025 -0.29707623 -0.3370763 0.42074364 0.53042156 0.2797845 -0.4133209 -0.887993 0.08167579 0.11093816 0.06645019 0.01235019 -0.057815462 -0.21372043 -0.8938897 -0.39910147 -0.31267378 -0.2067389 -0.68541056 0.56113887
nosotros -0.71938235 -1.9210863 0.42924187 -0.34013158 -0.11979266 0.85355926 0.21556334 0.345099 0.8084385 -0.5508272 1.0496532 -0.049830202 -0.71796876 0.30672577 1.2443237 -1.4819974 -0.09160309 -1.1868066 -0.07323335 0.599135 0.7715725 -0.047497958 0.23672843 -0.5167181 -1.898615 0.6874812 -0.58679396 0.44165376 -0.3115938 1.7098997
egreso 0.1361673 0.3132878 0.13738902 -1.8263391 0.19068481 0.3343045 1.2488742 -0.21323663 0.5001925 -2.7077067 -0.067173906 -0.9913149 -0.46108016 0.6655119 0.00018065702 -0.61802924 0.59204483 -1.1433902 -1.0744857 -0.8377484 0.1858778 1.5254996 -0.80330986 -0.89278084 0.056499194 -0.024960224 1.1685516 1.7836936 0.45785126 -1.1395147
otra -0.5588798 -0.8164157 -0.18413381 -0.88772976 0.23622032 0.23862661 -0.16103724 0.33169296 0.0074334927 -0.77698886 0.552772 0.019279685 -0.057006013 -0.19834746 0.03798414 -0.16854553 -0.43303484 -0.9039997 0.12813607 -0.4954504 0.4667926 0.5959815 0.47538653 0.41935644 -1.0472244 0.062895134 -0.407718 -0.27938974 -0.28767055 -0.08002044
tienen -0.28966635 -0.59816074 -0.36836305 0.5386766 -0.03937061 0.5211736 -0.05731626 -0.17653172 0.0857324 -0.49244815 0.38499263 0.5704277 -0.6612175 0.08572563 0.65176404 -0.2380355 -0.26896682 -0.9365882 0.20084126 0.27489078 0.24407886 -0.674695 0.5739176 -0.14023173 -1.3605968 0.7189613 -0.2339823 -0.41651893 -0.32078066 0.98456794
gente 0.029940309 -0.023912083 0.05303578 0.58868295 0.12678 -0.85258883 0.009624292 0.19062683 -0.44086984 -0.25480923 0.3792632 0.15048547 0.17922875 0.09012129 -0.075931065 -0.34326628 -0.09168361 0.005217353 -0.10874038 -0.30271062 -0.35513029 0.08226699 0.28251585 -0.38485265 0.8796361 -1.0433333 0.00091925776 -0.55107373 -0.11336933 0.4515703
veinticuatro 0.45143372 0.8040978 -0.4799291 -0.47262648 -1.1530976 0.11243753 -0.1488212 0.15840504 0.11666951 0.18150498 -0.52529424 -1.628093 -2.1954002 -0.44422555 -2.0760777 -1.3586209 0.68941826 -0.24947806 0.37422723 -0.12228724 -0.42416954 1.7598503 0.91929644 -0.56215924 0.15524957 -0.45629728 0.4266686 1.1414342 0.7164265 -1.2647705
unos 0.6724748 0.20859227 -0.22721139 0.17183845 -0.35516837 0.39533976 0.094680704 -0.34132832 0.1901297 0.12906168 -0.28586835 -0.785295 -0.31607437 0.31523773 -0.3832674 0.4238647 0.6932424 -1.376342 0.22797188 0.28946313 -0.6658661 0.17508881 0.05565056 0.37000862 0.7480544 0.9502077 -1.200258 -0.107907854 0.3851969 0.44944593
ayer 0.020394742 -0.7191047 -0.37490106 -2.4508126 -0.00916915 0.008477592 0.7972555 -0.23821272 0.07258486 -0.57500315 0.26941526 -1.477225 -0.7823293 0.69106215 0.71391255 -1.3239733 -0.11809582 -0.8351672 -0.9124972 0.26787993 0.7211365 0.29153067 -0.41813082 0.14463319 -0.40268478 0.74486095 -0.06980117 0.6603064 -0.13046889 -0.6105537
veintidos 0.2609055 0.5807647 -0.16901742 0.1855691 -1.1636728 -0.34505966 -0.4199728 -0.29368833 0.25813395 0.15094417 -0.91849715 -1.4119463 -2.2887359 -0.029282974 -1.4181602 -0.9041562 0.8257379 -0.49759758 0.3264021 -0.5477729 -0.38794124 1.5303087 0.8456563 0.009583055 0.54832697 0.45889 0.51592636 0.28941777 0.9756007 -1.3683858
diecinueve 0.24002258 0.43908834 -0.41474977 -0.7882173 -0.48366562 -0.4007434 -0.34895214 -0.35860723 -0.056484748 0.27373755 -1.316853 -0.6767284 -2.1285725 -0.1265412 -0.845689 -1.0205342 1.4828869 -0.32382897 0.17960176 -0.3859626 -1.4872606 1.1020918 1.0079637 0.048961233 0.5635801 0.095023796 -0.4326309 0.30752316 0.3259539 -1.2354294
estos 0.39404583 0.14110747 -0.45071727 -0.09975877 0.4385014 -0.17810108 0.36411992 -0.11365816 0.45866525 -0.7825638 0.3961111 0.29717353 -0.47095442 0.04495272 0.695915 0.068858735 0.532509 -0.16852812 -0.34440628 0.38588133 0.6840958 0.33009678 0.4499926 -0.054223973 0.2718284 0.052987475 -0.75818104 -0.38142484 0.03085742 0.6368769
servicio -0.23925129 -0.7631435 -1.6721711 0.9669745 -0.68133134 0.34186736 0.13280492 0.07871316 1.2086283 -1.0244232 0.9256455 0.70862526 0.3579982 -0.05082518 0.58146214 -0.12256185 0.019732784 -0.37952363 -0.16186418 -0.6220318 0.30456617 -0.053825308 0.37048185 -0.44303006 -0.0043215915 0.9366978 -0.38798422 0.66162646 0.05248591 0.8639964
dieciseis 0.096860304 2.0674775 -0.23221077 -0.5746119 -1.398668 -0.4187568 0.09901523 -0.24202186 -0.13838506 0.013449288 -1.0448382 -1.8653501 -2.134996 -0.70384455 -1.2931217 -0.23700254 0.18767944 -0.6288454 1.0661267 -0.35523826 0.123957284 1.5109128 0.3977891 0.13590634 1.2587558 -0.021199074 -0.8300824 0.7911337 0.58989275 -1.747632
catorce 0.9326806 0.6723051 -0.16495332 -0.2203688 -0.9803612 -0.024195323 -0.41538262 -0.6376253 0.3183834 0.4334537 -1.1458819 -1.7384491 -1.465202 -0.3884813 -0.30724898 -0.9981466 0.07618736 -0.67254883 -0.32473317 -0.21250172 -0.65016633 1.8923811 1.2404408 0.47450146 1.0412842 0.08492844 0.08139365 0.81974983 0.9439428 -1.7586757
veintiseis 0.68293405 0.9198132 -0.5101906 -0.63646585 -0.48277602 0.015209477 -0.39086187 0.09503945 0.11826813 -0.629923 -1.1256301 -2.0464265 -2.352281 -0.4237406 -1.757844 -0.78076327 0.44302624 -0.030804783 -0.23171553 0.46833792 -0.08507029 1.8398972 0.6260424 -0.26258433 0.49471003 0.8663372 0.28358498 0.6950096 0.4709557 -1.3934283
diecisiete 0.13247022 1.0120413 0.06228224 0.5562453 -0.6381527 0.09465421 0.46519557 -0.18923514 0.21395461 -0.30421945 -0.8841721 -0.93859065 -2.383655 -0.408171 -1.2820586 -0.9988787 0.19645391 -0.7993549 -0.50382024 -0.26426923 -1.0314217 1.2479283 1.8695115 0.07835482 1.2751617 0.35322946 -0.7384179 0.40611625 1.2082357 -2.161283
donde -0.29522339 -0.65586084 -0.6006403 -0.057630934 0.14961171 0.062076055 -0.22772004 0.45496747 0.17352413 -0.098107286 0.22447167 -0.19223979 -0.016304348 -0.42162895 0.4823535 0.35412383 -0.6899201 -0.62372005 0.4822918 0.8769891 -0.42881238 0.08783919 0.2939325 -0.31054953 -0.62753356 0.07934801 -0.64921916 0.14792138 -0.15369552 0.15662447
veintiuno 1.5557626 0.8449184 -0.4405376 -0.041624945 -0.41101474 -0.039135586 -0.19994026 -0.46208346 0.12929454 0.22383049 -1.4906789 -1.6659737 -2.3448956 -0.6788576 -1.7759426 -1.1275619 0.2101141 0.08268487 0.44932866 -0.02879558 -0.8122471 1.5463045 0.88767695 -0.2873136 0.30774006 -0.10124461 0.50215757 1.0234915 0.11242636 -0.71770054
estaba -0.53141576 -0.13243236 -0.41183424 -1.0245711 0.8676945 -0.21013965 0.8081572 0.41038403 -0.11208486 -1.0894274 0.8156782 -1.2597884 0.4529914 0.5648722 -0.28340158 -0.13366589 -1.4156953 -0.17727754 0.2625106 0.26064825 -0.21428968 -1.2817844 0.11189189 0.1629044 0.9518341 -1.2800922 -0.5299175 0.6243622 -0.124852054 1.2401979
correo -0.87142235 -0.6947548 0.82589847 -1.847813 1.8005888 0.49912354 -0.38800436 1.0799878 -0.5997044 1.5870395 1.1004051 -2.9300556 0.63561344 0.19592182 3.1226122 -0.8107017 0.93755454 -0.77317905 0.87937635 2.4414814 -0.7921268 -0.49119452 -0.30852956 -0.049596827 -1.7248125 1.9907504 -2.1965444 -0.43480152 0.38267952 1.340706
verdad 0.29571682 0.0061648875 -0.5549706 -0.056368846 -0.027104247 -0.45113462 -0.1820351 0.396166 0.014881176 -0.34057504 0.41892412 -0.46636292 -0.32159913 -0.25772768 0.078801475 -0.11177056 0.8234083 -0.4010458 -0.4444048 0.35703883 0.12248119 -0.104574926 -0.15153104 0.05321633 -0.24181756 -0.060215373 0.18217094 -0.26700404 -0.07995621 0.24490407
veinticinco 0.8126222 1.3494221 -0.11457537 -0.48703232 -0.7582756 -0.25672543 -0.4085268 0.16926089 -0.12142556 -0.5342305 -0.33523265 -2.0004816 -1.9827925 -0.5297017 -1.7604584 -0.95831317 0.418203 -0.4009744 0.29691625 0.2422721 -0.27268118 1.6088389 0.39609066 -0.13218433 0.5622543 -0.3156584 0.03612032 1.1919236 0.20019074 -1.3343644
llama -0.23141442 0.7411122 0.17140646 -0.6178446 -0.51930267 -0.12925331 -0.40146658 -0.5896584 -0.6201191 0.013493323 -1.3359938 -2.2283583 -0.6308969 -1.4984809 -1.1081936 0.6302296 -0.706346 0.4550389 0.85693145 0.70219564 -1.3451481 1.3405652 0.1141301 -0.07783033 1.6820565 -1.4423411 -0.32799697 -0.007072956 1.4538343 -0.7526089
tiempo -0.0011156785 -0.14382865 -0.080452144 -0.45798707 -0.7449743 -0.14745551 1.2933916 -0.67071086 0.1970329 -0.07406087 0.4399039 -0.7748271 0.76031554 1.1629255 -0.10305796 -0.5883884 -0.102515034 -0.34993964 0.04782308 0.07210262 2.1198893 0.21044214 0.34924132 -0.23687369 -1.0245837 0.3342993 -1.7451503 -0.70608103 -0.38534355 0.964285
caso -1.1103864 -0.4272294 -0.32567114 -0.43427005 0.0038752079 0.2620567 0.75220764 -0.18915386 0.1887592 -0.6063979 1.3637034 -0.2421689 0.89758795 0.92060345 1.1678718 -0.061140627 -0.3146992 -0.6766135 -0.10373802 -0.16952956 0.7776958 0.42856154 -0.24604215 -0.18153174 -1.1726067 0.83525985 -0.9803655 0.039939024 -0.13288628 1.7610252
veintinueve 1.0128405 1.1899581 -0.4410222 0.3462531 -0.5792987 0.5414531 0.34881052 -0.45692474 -0.52519566 -0.7356439 -1.8578854 -1.7477974 -2.252043 0.09312275 -1.4634573 -1.0171635 -0.086617954 -1.0652544 -0.5550834 -0.21020082 -0.15530708 1.4511467 -0.4553406 0.50145125 0.44017237 0.12366745 0.49023542 0.65699786 -0.2591126 -2.3401258
siempre 0.4038873 0.005351539 -0.06749569 0.16068327 0.33339834 0.17531694 0.44237688 0.4655611 -0.12402038 0.048022375 1.1838965 -0.20875496 -0.013606272 -0.4709672 0.5452721 -0.46038207 -0.22886884 -0.23404504 -0.5161084 0.2241099 0.26475996 -0.13434206 0.38441572 -0.3672674 -0.7684605 -0.13379179 -0.71483296 -0.1893599 -0.6475108 0.5267431
solamente -0.02774746 -0.20929128 -0.5207172 -0.08868773 0.4619993 0.08337211 -0.5414702 0.3725996 0.3598515 -1.1824601 0.16377653 0.053463873 -0.9192119 0.12423474 0.5173846 -0.24240322 -0.057593543 -1.0537511 -0.79565537 0.34711188 0.7613462 0.5432757 0.5376085 -0.3519493 -1.904796 0.39184213 -0.3193155 0.3302169 -0.55381685 0.058636
tenemos -0.36362904 -1.1957138 0.11495992 0.085031554 -0.12399981 0.70871663 0.14226022 0.2215758 0.1321756 -0.47494346 0.7433652 0.60866207 -0.85500443 -0.15078384 1.3482456 -0.62043273 0.021156484 -1.2790109 0.25804222 0.9079505 0.39052498 -0.5184542 0.13527723 -0.07015281 -1.050667 0.331743 -0.045470927 -0.04655926 -0.19487557 1.0223296
buenos 0.4700328 -1.1264155 -0.28752184 0.46218735 -0.69852924 -0.32345465 1.248043 -0.8972651 -0.6642048 -0.25930083 -0.11040143 0.13006842 1.2961395 -0.3120946 1.1760164 1.3772161 0.26458132 0.7163993 1.0350178 0.22662085 -0.9534478 -0.6082773 -1.1068684 0.30038118 -0.27407366 -0.67262846 0.71134335 -1.2189319 2.4053142 -0.63125104
poco 0.18593042 0.46408373 0.19313155 0.53067696 -0.502763 -0.65255105 -0.011088573 0.3990254 0.17305954 -0.37688848 0.29704434 -0.06011446 0.2560714 0.013254689 0.48077586 1.1386012 0.37480736 -0.045180064 -0.07664604 -0.27245077 -0.6534172 -0.19186263 0.06603639 -0.8228432 -0.14099807 -0.23206247 0.44740486 -0.94476455 -0.061579075 0.6490305
cien 0.38475898 0.8010013 0.045055084 0.5662602 0.30485433 -0.2869906 -0.08819369 -0.14509284 -0.030585129 0.0910086 -0.41149312 -0.37041065 -0.87403494 -0.2065704 0.23598385 -0.6398237 -0.17166239 -0.06903366 -0.25110874 -0.30466643 -0.10739378 0.19997914 1.4099921 -0.39592314 -0.011049383 1.0480351 -0.21050183 -0.6335646 -0.06462162 -0.37765566
entre 0.40725634 0.43859753 0.35939175 0.5633615 -0.2676406 0.06148017 0.010265877 -0.36733478 0.5546391 -0.3593264 0.109188996 -0.3852587 0.4220794 0.10867754 0.056005426 -0.31103864 -0.15510473 0.3234887 0.13455646 -0.8895857 0.02122857 0.6008416 0.71311796 -0.6520224 -0.20882645 0.762983 -0.37998566 -0.6200159 0.45201266 0.022844976
doscientos 0.5324027 0.21998717 -0.50748074 0.27631477 0.02459907 -0.53186977 -0.6845595 -0.022172933 0.4360709 -0.17856152 -1.340581 -1.1774465 -1.1266909 -0.18363087 -1.2517232 0.247447 0.99563843 -1.2035946 -0.373991 -1.438221 0.20248534 1.376451 1.1905935 -0.45002642 0.9731485 0.69264317 0.4088349 0.37497005 0.42120248 -1.6132318
algun -0.096883155 0.58136934 -0.48410136 0.99686337 -0.044564363 -0.7310001 -0.44081378 0.2513372 -0.27085802 -0.33546075 0.51711863 0.8455215 -0.42742556 0.063733354 0.8377488 -0.6645214 0.8159036 -1.0096794 0.18291767 -0.09026325 0.87215847 -0.45089117 0.66522974 -0.8681639 -0.21267968 -0.51220113 0.20218813 -0.34604856 -1.2576143 1.3597393
veintiocho 0.68036973 0.827284 -0.14836073 -0.14741033 -1.0128843 0.74598265 -0.41532692 -0.2677299 -0.0011397989 0.22513293 -0.23268054 -2.35702 -1.7229626 -0.5022137 -1.5553627 -1.1574097 0.23648565 -0.46753794 0.37876186 -0.4972495 -0.53760016 1.7861106 -0.23594142 0.16023378 0.9718006 0.77202195 0.69202316 0.9791843 0.03462535 -2.0508652
dieciocho 0.62322533 1.109572 -0.22660705 0.13386412 -0.95935076 -0.85959417 0.024068223 -0.27928838 0.27196902 0.31385297 -1.3825488 -1.3259553 -1.5414615 -0.6677261 -0.6265872 -1.1822081 0.3034059 -0.74056005 0.3243967 -0.10950115 -0.36410615 1.0953531 0.5109507 0.035474144 0.42707166 -0.44772577 -0.1674239 0.5466171 0.47460252 -2.2919743
agosto -1.1139442 1.0983434 -0.6012131 -0.6947143 -0.015453691 1.0679324 2.7148654 0.47806752 -0.28028715 -0.04187053 -0.7584378 -1.8472137 -3.1042862 0.9140524 -0.9728731 -1.7346302 -0.5772048 -1.4743036 -0.25621736 -0.9576053 0.4600283 1.3932348 -0.24688749 -0.14370163 -0.043206386 0.65955305 0.0773998 1.1614166 -0.81656176 -0.6687863
general -0.34150797 -0.7563755 -0.53886604 -1.0143822 -0.941812 -0.64222866 -0.49959725 0.31896326 -0.5291107 -1.6451858 0.11051539 0.40117386 0.12866229 -1.1636668 -0.15630734 -0.23844695 0.8500199 -0.11104212 -0.3850626 -1.9747593 0.25575018 -1.1216011 0.97770625 0.40821192 0.60983527 0.16635607 -0.71469885 0.036964305 0.03145781 0.48051736
sabes 0.26888037 0.07340839 -0.6619419 -0.2515597 -0.04514244 -0.07364684 0.059705216 0.053991456 -0.49901414 -0.25108644 0.6236973 -0.34162325 -0.30102015 0.49820098 0.0672257 0.35627913 0.5166385 -0.3300024 -0.40318075 0.2338736 0.18939507 0.16675967 0.16285077 0.18955372 -0.62296313 -0.67360735 -0.14673777 -0.14093679 -0.009411641 -0.042537678
complejidad -0.49249232 -2.1363344 -1.3615934 0.020237647 2.6861694 -1.7112765 0.4398975 1.1609976 0.6692106 -1.8149817 0.48976457 0.6403854 -0.3905799 1.5845658 0.6357267 -0.84523153 -0.5793731 -1.7954499 -1.0765711 -1.6192163 0.32635957 2.0649524 1.3640621 -1.1013871 0.13759343 1.6326194 1.7248238 1.0862632 -0.30983713 -3.5798707
tienes 0.6460795 0.10864202 0.09870379 0.5096097 -0.3591214 -0.4331192 -0.7477159 0.32770318 -0.11886058 0.008215712 0.5847874 -0.15366894 -0.3617968 0.25596836 0.81242645 0.32090092 -0.68056047 -0.32160908 0.084459655 0.20955287 -0.049435824 -0.43170017 -0.065974124 -0.45983645 -0.56806886 -0.5478134 -0.08980132 -0.4467752 -0.9416937 0.27256653
mucho -0.09776473 0.39539012 -0.23473819 0.042281393 -0.79929155 -0.725675 -0.11550077 -0.118165016 -0.2548009 -0.7415037 1.119748 -0.5659853 0.37126547 0.54591936 0.15667272 0.9991872 -0.119207025 0.5470428 0.84253937 -0.48815423 0.12044368 -0.34217888 0.11666894 0.3283776 -1.3101201 -0.18551369 0.39737082 -0.23708355 0.25107682 -0.10023928
cotizante 0.10176275 1.9219317 0.022248253 0.12463515 1.4886445 -0.31450248 0.5471689 0.12688988 0.800501 -1.7076763 -1.2069405 -2.2042708 -0.5357466 0.08606174 -0.57094604 -0.9900963 -0.18146564 0.45403266 -0.27342552 0.074150376 -1.9598473 -0.6324386 -0.28124738 1.0934818 4.576544 -3.8383455 0.37708718 -0.16985783 0.31401289 0.91649014
hecho 0.019638008 1.3290138 -0.00923969 -0.4608946 0.92658365 -0.36814275 -0.18701881 0.09540638 -0.048025277 -0.6230227 0.38639742 -0.9553528 -0.20455039 0.61501414 0.74833536 -1.0024693 -0.63919 -0.060561657 0.13504338 0.18953063 -0.054235976 -0.32315826 0.3938271 0.14904717 0.65873474 -2.2819643 0.275933 0.03495038 0.28640983 1.0930094
veintisiete 0.2169322 1.5270165 -0.09089552 -0.38905796 -0.14242406 0.3097063 -0.43062246 -0.5171685 0.7620315 0.14012085 -0.86682695 -2.1878543 -1.9214417 -0.7655227 -2.3055375 -0.8253166 -0.3651261 -0.6693154 0.62409353 0.21609695 -0.058060106 2.595383 -0.38056463 -0.73372424 0.2860846 0.52006984 0.43305087 0.50247806 0.46896338 -0.500014
maria 1.0185429 0.9972562 0.8411551 -0.022023331 -0.5201547 0.7289327 -0.5422017 -0.61576873 0.07444137 -0.18634483 -0.7086799 -2.9347427 -0.27663508 -1.0343872 -1.5140632 -0.21508642 -0.77745664 1.4090967 1.6345091 0.43843356 -1.7322974 0.80623704 -0.7499974 -0.15799168 1.0761937 -2.1135764 1.5035725 -0.13080555 1.4877137 -1.9932123
diagnostico 0.13385224 -0.13153362 -0.21054925 0.27168748 -0.61816037 -1.6472731 -1.445248 0.4383952 0.6143446 0.46863005 0.085330434 -0.10954534 -0.18880694 -0.03002739 0.22824013 -0.39717874 2.7245166 -0.059201915 -1.0296212 -2.7132835 -0.59689814 0.14725673 0.9659523 0.3200496 0.38157082 -0.598056 -0.6581137 -0.5295014 -1.3960807 0.88714796
generar -0.33995256 -0.32669628 0.07125908 -1.957396 -0.16158928 0.7152307 -0.66785276 0.026505439 1.1748257 -1.410303 1.0387397 -0.5112287 0.4701406 1.3358364 0.6851067 -0.6237649 0.7908144 -2.2831993 -0.5782583 -1.152624 -0.26166525 0.5811304 -0.23996563 -0.23821506 -0.7682199 -0.13159166 -0.57696307 1.0909063 -0.019092273 1.1094811
manana -0.28125617 -0.97096246 -0.45888525 -1.5287468 -0.7154676 0.76342577 0.2508579 -0.9067474 -0.8906775 0.58287853 0.76299983 -1.2159861 -0.19991286 1.3530288 1.3950865 -0.09393353 -0.17476176 -0.4437921 0.5818921 0.07484471 0.24535246 0.16724998 -0.48297298 1.4346005 -1.3609408 0.85003674 -0.71922404 -0.015893742 -0.8242803 -0.003174985
hacia -0.86255616 -0.6873931 -0.41157255 -0.4051065 0.08074476 -0.0042927857 0.62681955 -0.792585 0.099047095 -0.7206084 -0.06951238 0.31980577 -0.3696798 -0.25560486 0.2864023 -0.28758484 0.0037408415 0.08963856 -0.3269112 -0.30022985 -0.2542833 -0.28022406 -0.22892316 0.03970707 -0.5697701 0.08194426 -0.33272377 -0.69124144 -0.4374865 -0.26023102
hora 0.1733503 0.080890045 0.9816795 0.43847913 -0.8401761 0.9339304 0.11401682 -1.5003635 0.3886475 0.19766547 1.1681267 -0.78264654 1.8728714 0.99394566 0.5921793 0.09986342 0.048594322 0.8352789 1.8555639 0.076653816 -0.06183386 0.97731197 -0.4158141 -0.50153756 -1.196078 0.9315042 -1.6211033 -0.85061246 -0.1939756 1.5195537
trescientos 1.3172156 0.8695134 -0.9240127 -0.52234495 -0.40783334 -0.8658104 -0.9548126 -0.5172524 1.484192 0.024004135 -0.40756038 -1.3080235 -1.8468437 -0.20936534 -0.87973887 0.24650037 0.11634613 -2.0732024 -0.2326837 -0.114268646 0.5772726 1.0496501 1.6678585 -0.5955438 1.0281949 0.75724787 -0.079996414 1.0154607 1.7519028 -3.2040355
cada 0.43342716 0.27393374 -0.044369735 0.83178097 0.78964496 0.14408949 0.7195633 -0.39863533 0.11787185 -0.5695496 0.10899853 0.6775424 -0.9920984 -0.16821586 0.18323424 0.5609155 0.5704633 -0.7127641 -0.24508621 -0.33952948 -0.361232 0.36522394 0.29861012 0.49864432 -1.2188224 -0.16113994 0.41601273 -0.5182203 -0.6788088 -0.5523155
tomar -0.73972875 -0.24291725 -1.3553721 -1.09303 0.5275748 -0.548149 0.58894384 -0.21706322 0.69866556 -0.09239947 1.00159 -0.0615662 1.7827107 0.40740916 0.8103341 -0.2547786 0.03653619 -1.9287373 0.6751507 0.41126615 0.7803478 0.07065777 -0.466417 -0.557315 -1.3652368 -0.0070879967 -1.0420622 0.27436447 -0.7705758 2.9378643
clinica 0.38542014 -3.0874588 -0.8830725 -0.715348 -0.16380742 0.79886806 0.7914015 -0.63764256 -0.2624564 0.8221299 -0.9639722 0.42402634 0.6548619 -0.10456445 0.56871635 -1.2857136 0.21945961 -0.6906216 2.3698325 0.23147994 -1.7516893 -0.9314678 -0.44989938 -1.5573796 0.619235 -0.5900529 0.68881506 0.08152705 1.4277972 -0.52245265
sobre 0.3050701 0.23070668 0.46379483 -0.20327228 -1.5136378 -1.3765942 -0.17242655 -0.84893036 -0.08417687 0.29594803 -0.001118536 -0.5550308 0.049423702 0.11308097 1.2907532 -0.83576274 -0.49524632 0.10112697 0.51850694 -0.10307834 -0.4239991 0.8856381 -0.18629575 -0.027953595 0.027692363 0.84843916 0.16404594 -0.5934511 -0.92508507 -0.37994134
tenga 0.14442952 -0.15223715 -0.1232261 0.7582136 -0.48491508 0.24042968 0.6744572 -0.21249442 0.28690636 -0.32418147 1.7165905 -0.1734205 0.42375478 0.5675874 0.40567487 0.13573514 -0.21597432 -0.024724323 0.12642701 0.25950286 -0.12666579 0.4044917 -0.6776984 0.6479357 -1.3586458 -0.25764585 -0.18745317 -0.32065457 1.3687409 0.049837556
institucion 0.005517898 -1.013485 -1.5453665 1.0008929 -0.6891429 0.93056965 -0.97230947 -1.2682698 -0.23486035 1.0207014 -1.1930201 -0.36968115 -0.33617517 -0.04023204 0.7778931 -0.82848775 0.8329245 0.031118238 0.88307613 0.2325434 -1.4072272 1.0518354 0.2159682 -0.65451556 0.1716026 -0.3933282 -0.19059415 1.1252127 1.060656 0.04567677
quinientos 0.70356107 1.1865641 0.01705095 -0.37291065 -0.47143036 -0.62899905 -1.6644765 -0.5011526 -0.91391736 -0.44170976 -2.2649531 -0.30414557 -1.3744032 -1.4959595 -0.3269237 -0.38185295 0.4979246 -1.1776116 -0.1298466 -1.9934312 -1.0647533 0.6447847 0.79779875 0.26260895 0.74729276 -0.15484089 0.28729185 -0.14292063 0.09586679 -1.3544638
hospitalizacion -0.64135104 0.14949279 -1.1368972 -1.6192997 -0.4665952 0.53940934 -0.21526487 0.16648676 0.4348656 -0.0033264882 1.373829 -0.16819891 -1.4350758 1.1618536 0.88005775 -1.7597871 1.2628522 -1.5926677 -0.5757156 -1.3273065 0.5125528 -0.04914024 0.02167512 -0.2781926 0.14108375 -0.35711756 -0.1407998 0.8576832 0.68379956 -0.06008276
ningun -0.43052453 0.26294678 -0.22136864 -0.2741501 0.37245205 0.38841245 0.45404238 -0.042028926 -0.64135945 -0.151489 1.3123978 0.19856897 -0.8018969 -0.081601046 1.146515 0.45862466 -0.3191944 -0.32380965 -0.25935182 0.09166438 0.672021 -0.30135086 0.16970618 -1.0367448 -0.012340412 -0.37077308 0.4515451 -0.43004614 -0.629586 0.7604454
menos -0.4390038 0.5646186 -0.57285964 -0.17133285 0.14420852 0.251542 -0.024977457 -0.4927466 -0.8638377 -0.48639086 -0.28429583 -0.7749933 -0.7903245 0.10262645 1.6090227 0.5176466 0.17201874 -0.059777133 0.81796974 0.4823595 0.5281124 -0.5996157 -0.641208 0.017203 -0.98110014 0.63696516 -0.17768385 0.21192163 -0.6281839 0.4632653
habia 0.15993117 -0.067283824 -0.008415371 -1.2779857 -0.062070794 -0.4583796 0.496845 -0.48933616 0.2030826 0.035688218 1.7768238 -0.11861487 -0.6326516 1.037016 0.6428249 -1.1177919 -0.96239674 -0.7237321 0.18345511 1.2240361 0.121696785 -0.16549137 -0.09068627 0.24811131 -0.0660113 -0.026770646 -0.78139913 -0.5500097 -0.46380892 0.3218608
novecientos 0.9282613 -0.061934363 -0.74063295 0.33742905 -0.8029434 0.09018862 -0.706663 -1.4433178 0.8708796 1.1775726 -2.326597 -1.3501022 -1.4518642 -0.6410471 -1.1856831 -0.42106408 0.9678777 -0.37616184 1.7494719 -0.08718011 -2.303309 1.6758722 1.1069862 -0.81977916 1.7420137 0.4802385 -0.119337656 0.8930714 1.7925957 -0.7305625
cita -0.7157835 -2.2420425 -0.7573185 -0.3966223 -0.53714776 0.4453839 -0.6101554 -0.639722 -0.35447714 1.2444196 0.37151554 0.26887918 -0.1961424 0.087809846 -0.22899456 -0.92966187 0.33861303 -1.0754528 0.4616969 -0.6699037 0.03830258 -0.8729596 -0.24582367 -0.6056938 -0.64252025 -0.49991804 0.64019245 -1.2005965 0.21989855 1.1988211
parcial 1.2850827 -0.17230682 0.68394136 -1.6518272 0.55686677 0.31267443 0.80487746 -0.24874115 0.67517984 -3.2738984 -0.40692654 -0.72015405 -1.4967991 0.59936446 -0.09215358 -0.5108654 -0.6537111 -1.0641121 -1.1795549 -1.1357489 -0.7344829 1.8067012 -0.1822166 -0.9485249 0.59289354 0.3410851 1.3185129 2.2172503 0.7348483 -1.9089693
pronto -0.6800132 -0.34127045 -0.00092792243 -0.18966696 0.4512655 0.6867395 0.5966495 -0.14278641 0.08648319 -0.017938878 1.8457725 -0.40870574 -0.19536075 -0.09367667 1.3645815 0.52598625 0.60828227 -0.46126196 0.18513851 0.75024146 0.18892373 -1.019519 0.41093913 -0.65465444 -1.6784 -0.24161431 0.055871785 0.17464085 -0.35431916 1.1052161
cosas 0.053850356 1.1290859 0.41121602 0.4775122 0.043787688 -0.06118689 -0.035407476 0.46464214 0.8756495 -0.4434236 1.001487 -0.7743623 0.7921106 0.22616957 0.44575834 -0.30023366 0.17143834 -0.47502866 -0.5128945 0.05128134 -0.42973986 0.2924422 0.689222 0.23854345 0.059355196 -0.8932254 0.3307576 -0.9426601 -0.7740566 0.5838107
maneja 0.8477803 1.2557915 -0.5337044 1.0237074 0.44051743 -1.8559378 -0.64412624 -0.021919845 1.2946072 0.35005197 -0.15955852 -0.10470126 0.37545735 0.20905583 0.27009964 -0.86068255 1.9601027 -1.3315306 -0.35877207 -1.1797962 0.28780752 0.280134 0.48196852 -0.22132616 2.1258848 -1.5372958 0.05824132 -0.335984 -0.5935201 2.4699085
afiliado_cotizante -0.97906464 1.956783 0.7658822 0.1828174 1.5656217 -0.47994018 0.982446 0.14320086 1.0325238 -1.3333033 -1.4970015 -2.608506 -0.029250722 1.1224505 -0.22048962 -1.5140098 0.10915672 0.17835666 -0.28190714 -0.2091774 -1.6021966 0.14530282 -0.43999577 -0.55512077 4.7827563 -3.5640242 -0.4651482 0.448474 1.4421626 1.7136229
ninos 0.06983685 -0.39923495 -0.47566262 0.082370594 0.4623999 -0.22023952 0.51078135 0.5441187 -0.1305391 -0.088620946 0.93621826 -0.37001526 0.112815596 0.86826247 -0.059830397 0.83061934 0.017416043 -0.32695436 0.34923542 -0.3370401 0.47660595 0.12101132 0.46393862 0.40134904 0.49111104 -0.122779205 0.8526554 -1.0530311 0.17813092 0.1336607
orden -1.8520806 -0.4542034 -0.2708688 -0.4870148 0.42321315 -0.5518427 0.87947714 0.4096512 0.0008781968 0.12211748 0.25408247 -0.36594298 0.24734978 -0.2707307 0.45429638 -0.294079 -1.2789817 -0.65266126 0.7805669 -0.09435643 0.2775445 -0.2894234 0.97698385 -0.011579336 -1.7173933 0.6531827 -0.81111574 -0.89620984 -1.0541569 0.32568172
tramite -1.5965309 -0.69827497 -1.1243658 -0.2696447 0.5355035 -0.11094565 -0.9441094 -0.6054924 -0.16151406 -0.92714274 1.4709463 1.3196983 1.0347224 0.73454344 1.3037183 -1.0161539 -0.18617906 -2.4068828 1.033109 1.2586881 1.2609622 1.7524803 -0.82956374 -0.73454756 -0.82530403 -1.6953181 -0.75683993 -0.12520449 -0.211304 2.0645356
minutos -1.1119661 1.5497533 -0.016589 -0.2117058 -1.79148 0.39398465 1.29802 -1.2096959 -0.41205052 0.31732193 -0.072687805 -2.0194502 1.9486358 2.439027 1.3579429 -1.6877289 0.5405033 -0.054110363 1.9515711 1.1941867 0.0116728945 0.97017616 0.26885366 0.034976274 -1.2923058 1.6831068 -1.6202902 -0.7183747 -0.9222352 0.26711532
unipersonal 1.1234803 -0.1103123 -1.7276338 -0.94666904 2.1006978 -2.220685 0.3914606 1.7369808 1.7498019 -1.1915559 0.20033243 -1.0864025 -0.2441269 0.061431777 0.33719748 -0.51534104 0.531945 -1.8798476 -1.0553198 -0.8421346 0.37434357 1.9352204 0.11105978 -0.5043427 -0.47171494 1.341887 0.28843218 2.2982478 0.21306814 -3.265752
deja 1.6370131 0.6886647 -0.5004361 -1.4509023 0.5360362 -0.29429314 0.5418332 0.28413686 0.46053982 -1.740976 0.44089308 -0.113013946 -0.10404506 0.0975814 0.32857144 0.4980834 0.07497842 -1.2745459 -1.4771044 -0.49750057 -0.0036007853 -0.15592363 -0.069539726 -1.1377131 -1.6368523 0.67873824 -0.5497816 1.3402637 -0.8979332 1.3390944
tenia -0.082122214 -0.8988578 -0.85931015 -0.37101617 0.18886432 -0.12644683 -0.9830283 0.16690071 -0.7554519 -0.23784243 0.5039186 -0.43210167 -0.49841794 0.28434047 -0.0115190195 -0.5353506 -1.065729 -0.8499749 -0.31079984 0.7617947 -0.15089346 -0.9965375 -0.08680613 0.28747097 -0.68404627 -0.3161373 -0.06099709 -0.19615212 0.072655864 -0.16377236
estar -0.008080404 -0.5000366 -0.1292341 -0.082516894 0.6644723 -0.7975851 0.023940517 0.533211 0.3137751 -0.5726084 0.92794573 -0.25979292 0.13947009 0.5633413 0.18018593 -0.30670512 -0.19658178 -0.2858306 1.0758615 0.55619615 -0.24474268 -0.32756108 -0.21819948 -0.04496333 -0.7310525 0.38419324 -0.0031044492 -0.24104992 -0.07114579 0.6045769
mama -1.133888 0.44371298 -0.2227832 0.15035354 -0.36482584 0.54756093 -1.1988156 0.83132905 -1.3685888 0.2617779 0.40975612 -1.1632574 -1.0727688 -0.05732747 0.24764942 1.2877322 0.7430603 -0.088293195 1.5064576 -0.5515888 0.7481546 -0.31903115 0.23089045 -0.20997761 0.018256783 -0.7334945 -0.06356102 -0.4807503 0.42994043 -0.32239205
afiliado -0.5621862 1.8684125 0.026710995 0.8781034 0.5507947 -0.17904036 0.14757608 0.5667659 0.5415832 -1.9009967 -1.2884324 -2.040516 -0.26066956 0.9194585 -0.9341649 -0.9474399 0.14674145 0.69082433 0.75392646 0.6292016 -0.8012451 0.11828736 -0.64077365 -0.73574424 3.7364745 -3.5013878 -1.2092612 0.6364351 0.7789213 1.6944216
intermedios 0.8089024 -0.2785302 -0.837942 -0.4059341 2.4946244 -0.44706073 0.1678662 0.60182977 2.8278747 -1.6795594 0.6757287 -0.31934905 -2.8651848 0.27755225 -0.90466666 -0.26916337 1.0879918 -1.9065255 -0.070395656 -1.1479946 -0.9828159 1.5720812 -0.8440936 1.7473115 -1.423097 0.62349075 1.0680488 1.2520102 -0.6673609 -3.8122237
envio -0.17748798 -0.4269404 -0.19995177 -1.4915948 0.87637323 -0.22296719 0.47036725 0.16679643 -0.50995207 1.7348883 -0.22809932 -3.2191887 1.2450297 -0.1363907 2.2120738 -1.0090121 -0.03409431 -0.8795044 0.92857873 1.9750082 0.25015986 0.14232603 -0.30232802 0.722766 -0.6105268 1.605356 -1.5534989 -0.0634071 -0.48009148 1.1646845
valencia 0.52214915 0.59499806 0.04702541 0.2919543 -0.04353809 -0.5155261 -0.58408934 -0.4575619 -0.06703047 -1.1618769 -0.93262637 0.023667209 -0.95975107 -0.41566548 0.80496705 0.23344548 -0.6680197 0.8354877 0.4042615 0.12686978 1.1953527 0.37655744 0.5566753 -0.9380163 0.7953226 0.021145716 0.061980322 -1.1165448 1.2770942 -0.7791862
vaya -0.6526738 -0.22228268 -0.34322512 0.020843942 -0.19987176 0.9844742 1.5878563 -1.2443588 -1.1864964 -0.41775078 1.5200442 -1.4108341 1.7801305 -0.31492862 -0.20306607 1.086117 1.5882614 -1.0110141 -0.27492276 -1.1900064 0.25075868 1.0555581 -0.1508276 1.040941 0.32014138 0.005514643 0.067435525 0.53816533 -1.1808386 0.48857364
traslado -1.4257119 -1.5858928 -2.0750816 -0.32147056 -0.30203056 0.33440316 -1.7137803 -1.425561 0.11349717 -0.965866 0.54105115 0.48115388 0.91679 -0.5022737 0.80904096 -1.9329342 -0.32430762 -0.8844288 0.26206356 1.842743 0.81520826 0.40077525 -0.86249393 0.0410883 -0.6354666 -0.69924885 -0.28729603 -0.37940308 0.23119526 1.295466
urgencia -1.0393143 -1.2936219 -0.92220926 -1.9000247 -0.80322427 -0.23120376 -0.030073304 -0.048419073 1.0459721 0.13815974 -0.07263086 -0.03361882 -1.0464803 0.1252539 0.29668474 -1.5413442 1.263983 -1.1909386 0.108399145 -0.69569904 -0.79305977 -0.73385924 -0.033205006 0.6732483 0.33156422 -0.29895085 -0.5978171 0.20497407 0.36440143 1.5921125
nunca 0.0898803 -0.18103841 0.00026111206 0.099446096 0.89506584 -0.008006823 -1.1636502 0.7994564 0.3725944 0.19789906 2.1406903 -0.8058209 -1.1440762 0.66053814 0.47100386 -0.45697576 -0.6483492 0.1845533 0.8245358 0.72861826 -0.6029399 -0.6514959 0.045951296 0.665405 -0.45425367 0.23539816 0.24401371 -0.3127767 -0.083707914 1.1033186
pueden -0.49797118 -0.4073539 0.7880507 -0.37179804 -0.71917987 0.5919753 -0.57821625 0.8805789 -0.18917876 -1.3629359 1.2566442 0.13346337 0.41218424 0.22822133 1.4145762 -0.122067146 0.51835996 -2.6659894 0.2409155 0.95488703 -0.2547936 -0.5511345 -0.15714736 0.11870097 -1.1201969 0.71498305 -0.5149569 -0.37204334 -0.26687574 1.3777838
podria -0.2933661 1.1861061 -0.18556166 0.2586249 -0.38183385 0.3029855 -0.002170037 -0.7802819 -0.031529903 -0.32210281 0.52086014 -0.4487458 0.5782103 0.4233771 0.3260424 -1.6231639 -0.106781244 -0.09166415 0.79256684 -0.6266148 -0.95925987 -0.6326105 0.23688748 0.37663907 0.24137124 -1.4837823 0.0036428263 0.33836922 0.101460196 0.48839062
definitivo 0.69839996 -0.46748877 1.1187167 -2.4440649 -0.5905912 0.1498855 0.9802606 -0.33979675 1.0203646 -3.072169 -0.92937255 -0.7369781 -1.3120742 1.3142664 0.2123045 -0.9822526 0.51868975 -2.4414582 -1.1417997 -0.6761349 -1.0185916 1.8453426 -1.0777608 -1.4587657 0.94489706 0.5954488 0.95176536 2.301218 1.2282612 -2.6271143
otras -0.048944954 0.8916741 -0.058398753 -0.35838392 -0.014458717 0.64958423 -0.21383342 -0.09891561 -0.1582419 -0.9033333 0.39147562 0.0412643 0.04307326 0.042112797 -0.096729085 -0.24030484 1.2231281 -0.77693576 0.07589036 -0.9445437 -0.68561256 -0.36748067 1.8921813 0.82557875 -0.26045194 0.47739035 0.1142015 -0.90191936 -0.5597969 0.05788485
urgencias -0.84489006 -1.3645504 -1.4234908 -0.7980085 -1.1675922 0.3214958 -0.79408616 -1.1205908 0.69397527 -0.14741538 0.5240677 -0.1856558 -0.8395403 -0.96770334 0.63543767 -0.89986867 0.7531093 -0.3287757 0.39254478 0.25693735 -0.7861408 -1.0375906 0.4374131 -0.46291533 0.8652368 0.4969551 -0.52593684 1.0877293 -0.09010603 0.122388914
julio -1.0613958 0.052447807 -0.29144245 0.23526983 -1.2508991 1.5862759 2.1921024 1.3231392 -0.6642388 0.841881 -0.045674913 -2.3137102 -2.9469235 0.8088362 -1.0004946 -2.7579162 -0.65032285 -0.78630716 -0.5013856 0.1789479 0.003403628 1.9493738 -0.12364994 0.19958627 -0.17468885 -0.30497745 0.7289867 0.9743687 -1.0409352 0.23187912
camas 0.38971725 -1.8230968 -2.024924 -0.2850066 0.6926868 -1.1553898 0.19509193 0.92443234 1.8296579 -0.8689322 0.07142094 -0.25275704 -0.46025848 -0.49503067 0.0109060025 0.3035038 -0.5225854 -2.4280136 -1.5870658 0.600292 -1.1791793 1.8966277 1.6203691 -1.123973 0.22131184 1.7162557 0.3624015 1.7982378 -0.32611445 -3.5217545
estancias 1.1663567 0.12723458 -0.1664397 -1.0463651 1.3026208 -0.9647992 0.9169241 0.52873564 1.2172357 -1.4055378 0.9060676 0.4652497 -0.9471098 1.0730064 0.29638568 -0.8051594 0.67260844 -1.5596684 -0.79902244 -1.201478 0.5124844 0.521531 -0.4436775 -1.1112691 -0.17767988 0.111188054 0.72435856 0.99795985 -0.04844385 -1.4970605
nuevo 0.44756845 0.022259828 -0.091646776 -0.9712136 0.58667105 0.26893547 0.047207072 0.0026430376 0.43238825 -0.04735945 0.17311549 -0.8078852 0.038884703 1.0418211 1.0619358 0.40586135 0.6365586 -1.0086851 0.018083388 0.25502816 0.045940805 0.47533706 -0.10731192 -0.5779443 -0.5992167 -0.17439751 0.06972229 0.35302025 -0.24873535 -0.12828416
servicios 0.07932735 -0.6291057 -2.3705285 0.41325435 -0.4699625 1.3094989 0.43867153 -0.09320621 1.010695 -1.2471175 -0.07919754 0.43653625 0.045177188 0.45307273 0.49558327 0.55949455 -0.006075554 -1.1497238 0.8309608 -1.4252056 -0.77090746 0.32993954 0.46757478 0.0007715351 0.66347796 1.1728945 -0.02703392 1.470558 -0.6213809 0.7819292
nina 0.06407797 0.36228254 -1.1613231 -0.6696493 -0.40507695 -0.19741912 1.1086259 0.54473764 -1.2168281 0.5457034 1.0467067 -0.35615024 0.29880095 -0.70518327 0.0038992807 1.1958121 0.84371275 0.16565524 0.7177865 -0.90958416 0.31234932 0.19908056 -0.4331357 0.4369746 -0.3148602 0.060933784 0.08717361 -0.641186 0.88258314 0.168637
hacen 0.4064254 0.18013287 -0.6450246 0.07837838 0.5737469 -0.0894884 0.30492437 0.5015627 -0.019409187 -0.4658667 0.52186304 -0.06265446 0.011731359 -0.422089 0.8805229 0.20525454 -0.037447676 0.032039847 -0.09657889 0.9820764 0.41045657 0.6251519 0.24750751 0.100195564 -0.3064911 0.09331414 -0.9169977 -0.47001064 -0.11200188 0.6982223
todas 0.21670066 0.61786896 -0.48277962 0.15024379 1.4970413 1.7730101 0.97216994 -0.26770374 -0.16565679 -0.54004383 0.7565091 -0.500564 0.3593341 -0.66312325 -0.36477277 -0.5031992 0.17512362 0.052568223 0.3182071 -0.16382968 -0.46265158 -0.7980341 0.3417273 -0.45865002 0.26086798 1.2744741 -0.2341412 -0.46344477 -0.7409599 0.8444476
primer 0.9554406 -1.2669086 -0.52535146 -0.7858961 -0.51778305 0.2979789 -0.82523584 -0.6442772 0.14526184 0.069746576 -0.82297134 -1.4329534 -1.2578746 -0.5061493 -0.1955328 -0.9244294 -1.2864236 -0.6880181 0.15451446 0.5698422 1.2597169 0.02226552 1.4955924 -0.40638965 0.77338856 0.21506666 -0.98497087 0.77349454 -0.09279171 -0.3192477
ochocientos 1.0039611 -0.48050416 -1.4130769 0.92804855 -1.446707 0.037902325 -2.1917167 -0.44712213 -0.47378048 0.1427023 -1.8062713 -0.98828995 -1.2054595 -0.9473954 -1.8948983 -0.55802727 1.2896872 -0.8641399 1.8702174 -0.61860085 -1.3115573 0.50637054 1.5147084 -0.7764048 1.1739129 0.15551037 -1.2625107 2.1175234 2.0466356 -2.0544574
poder -0.56900436 -0.25015745 1.1446383 -0.75102186 -0.25598976 0.5480431 -0.02148153 0.12976047 0.98175865 -1.131924 0.49251208 -0.41584262 1.079731 0.35301033 1.0405517 -0.7701916 0.003045462 -1.7136896 0.8085389 -0.09204347 0.25172195 0.61515856 0.38215485 -0.2922871 -0.99444187 -0.5173935 -0.3950681 0.382431 -0.1142506 0.91559345
medicamentos -0.44400477 1.2537625 0.47045386 1.3774002 0.105451494 1.0315592 1.1902268 1.8911052 -1.0760658 1.6305214 0.4718813 0.51737666 -1.4628115 -0.52878463 1.0327544 0.6936159 -3.5236342 -2.1923873 1.70145 0.08162245 -0.83580846 -1.126461 -0.23251054 0.00057328574 -2.7013698 -0.05602635 -0.27676278 -2.0659318 -1.2403584 0.9182688
ultimo 0.0115179885 0.8438454 0.5547121 -1.5689929 -1.4793501 0.4604759 0.44702682 -0.48891237 -0.16961573 -0.7046532 -0.83131254 -1.7996887 -1.2124529 -0.5745296 -0.23101626 -0.24689852 -0.61086553 -0.08876289 -0.46627805 -0.82634974 0.09456055 0.7606204 0.18465611 0.29128245 -0.34168494 0.10734685 0.30223155 0.10153405 -0.33363077 -1.1085961
consulta -2.0265422 -2.5152314 0.37951714 1.3572284 -0.3096041 0.6435352 -0.31695107 -1.2124174 1.7025435 0.3977465 0.5050355 0.38163024 -1.2460771 -2.110472 -1.2028391 -0.8295462 -0.76617897 -0.31338403 0.20314449 -1.6830221 -0.3035311 -0.8711298 1.4736291 -0.23555726 1.0060871 1.1348667 -0.69753385 -1.1397762 -0.42843857 1.1039945
pagina 2.0242074 -0.5611317 -0.7900589 -1.5897797 0.7057351 1.3688984 -0.15379341 0.37488285 0.12742285 -0.9802211 1.5813103 0.59663635 -0.7133781 -0.036895793 0.39639372 0.35502195 -0.029502371 0.17509542 0.32258144 0.25402156 -1.2221915 -0.0076298593 -0.3659766 -1.6406609 -1.1244884 0.77848727 -1.6628321 1.4416953 -0.6385441 2.1389313
estuvo 0.5947039 -0.8706163 -1.4018718 -0.4907072 1.5336354 -1.2755672 0.7510629 -0.053257015 1.5072874 -1.125266 0.15098107 0.022900302 -2.9212463 0.7264017 -0.030182116 -0.40882665 0.7062662 -1.7592136 -0.9161168 0.43790004 0.07541722 0.26464233 -0.05959001 0.21303132 -0.113899566 0.66643214 0.5840749 1.1730366 -0.29051334 -3.6696613
casa -0.5649144 -0.5845946 -0.13622594 0.49561027 0.05522766 -1.3383923 1.2077311 -0.7181273 -0.81434333 0.1197114 0.58991265 0.5829236 -0.37210774 0.4083301 0.81834906 -0.4426937 -0.65450835 -0.09659751 0.6692999 0.80269545 -0.77027255 -1.2218267 0.36656666 -0.5477016 -0.35229528 1.1104809 -0.5885677 -0.16982867 0.5086202 0.25496423
vida -0.21633337 -0.22118351 0.30756462 -0.14003779 0.4865455 -0.15414242 0.103383385 0.4669076 -0.19064972 -1.2490816 0.64429486 0.37514016 0.44147146 -0.08291607 -0.11712299 -0.7699346 -0.43302527 0.42913893 0.4218241 -0.5025994 -0.24471207 0.2653078 0.2378737 -0.50781417 -0.32347104 -0.20722614 0.10501361 -0.83962464 -0.53293616 -0.30404657
octubre -1.5137286 0.006875148 -1.4581952 -1.1463724 -0.13155204 -0.07482571 1.000082 -0.3475281 0.6928194 0.6273224 0.09360354 -2.5676534 -2.5055578 1.5050325 0.93953216 -0.5842125 -0.2852532 -0.51234585 -1.3723977 -1.8704901 1.8710799 1.8370076 -0.8534653 0.07807527 1.0919803 1.28281 0.42343006 1.3690518 -0.49824366 -1.1049231
pos 0.4634251 1.5513765 1.1780726 1.0663834 0.2972913 -1.376694 -0.287762 0.16247569 1.7891105 -0.22631297 -1.4470322 -1.1243795 -0.4527014 0.52357197 0.31903034 -1.2068057 0.45985955 -0.35423064 -0.41131544 -1.6516042 -1.6425842 0.36033717 0.27474678 0.16211562 4.000267 -2.5339365 0.6343852 -0.72944385 -0.52331096 2.097782
internacion -0.5307838 -1.0330862 -0.6581661 -0.24931258 2.1636739 -0.58980817 1.3550373 0.48631465 0.48186502 -0.4120548 -0.54452205 -1.27013 -1.3030597 2.3868036 0.17536707 -1.4306093 0.38288736 -1.4371501 -1.2833891 -1.8155657 0.16572948 0.9907942 0.038590804 -0.74251467 0.627536 0.4012658 1.6734306 1.335266 -0.24734785 -1.7959416
portal 1.4623909 -0.20018035 0.1535901 -2.2870314 1.2950121 -0.04546903 0.7439658 -1.0967534 1.550433 -1.7208713 0.37696078 0.2270695 -0.11636873 -0.77296567 0.7943369 0.14048582 0.8649815 -1.6737205 -0.13190345 -0.45013744 -0.024183441 -0.2307159 -0.18266088 -0.019461313 -1.1795887 -0.5111875 -0.7111571 1.478088 0.3171993 2.1810412
cuatrocientos 0.65887195 1.215048 -0.19557725 -0.41449317 0.4903948 0.5985414 -1.0295591 -1.7808603 0.5974796 -0.2959021 -0.91870517 -1.2923192 -1.4758172 -1.7136595 -1.4148927 -0.52712256 0.8054834 -1.804324 0.09231124 0.030835232 -1.6430839 1.9123245 1.7297797 0.18253592 0.55759346 0.80462813 0.5612697 0.8185792 1.4030393 -3.0152729
jose 1.2331374 -0.82825655 0.11916437 -0.24210362 0.050227627 0.41961792 -0.093575336 -0.7805078 -0.47380722 0.18673012 -1.2393799 -1.0411698 -0.060962006 -0.3540228 -1.3478135 -0.31585956 0.22736332 0.97789747 0.73156154 1.5003223 -1.8295487 0.78130656 -0.14228089 -0.42674 3.2970011 -2.2959456 -0.6058523 -0.9950762 0.7522378 -0.5936546
queda 0.41731277 0.19458307 0.08465237 0.22898692 -0.56310064 0.781847 -0.15421095 -0.65961325 0.063951544 -0.09047505 0.5934887 -0.5143006 -0.2516846 1.2053198 -0.16039398 -0.2798395 -0.7756232 -1.2625415 -0.06425406 -0.22572647 -0.48247305 0.4985013 -0.44078535 -0.6592323 -0.1380523 -0.07761817 -0.7943509 0.4600053 -0.9576068 0.70902836
tomo -0.6047189 -0.14334828 -0.0036390377 0.19369163 -0.19228454 -0.8107499 0.52706397 0.847349 0.83801746 -0.89044654 1.1057242 -0.5545328 1.3897704 0.41628715 0.10079191 -0.4985686 -0.47335044 0.57460046 -0.9039194 -0.45251685 0.22570731 1.0414083 -0.31306922 0.29282242 -1.6846864 1.5382915 -0.3342743 -1.1495156 -0.78217 1.3114026
sale -0.037587572 -0.16048083 -0.63097185 -0.4268233 0.0068692854 0.022884669 -0.43641677 -0.4289233 -0.021955736 0.14428261 0.716182 -0.27323192 -0.20667799 -0.42972526 0.7996731 0.35757855 -0.0022804453 -0.8719782 -0.37553132 -0.4080603 -0.6137386 -0.25300545 -0.4260016 0.06220358 -1.6055279 0.10298588 0.13492611 0.4345815 -0.5492028 0.1078138
hospital 0.39239162 -3.4989283 -0.32988033 -0.2452958 -0.8320573 0.33697078 -0.174914 -0.65707475 -0.3834544 0.4804768 -0.97785485 0.18832779 -0.6194184 -0.7705531 -0.5479364 -0.9642384 0.28966403 1.3860509 2.047206 2.2546778 -1.3726068 0.043127164 0.15875502 -0.4406215 0.54367054 -0.786203 -0.90207595 -0.94231564 2.196643 -0.26121315
comunicacion -1.2807649 0.45390072 -0.4497404 0.5726012 -0.6196639 0.48646054 2.186186 -1.3733934 0.16420071 -0.36016327 1.2418832 -1.1694545 2.1170619 2.249059 1.5682728 -0.29433185 -0.09552483 1.6437951 1.230995 0.49580762 0.19974351 0.76678157 0.3492977 0.1139416 -2.5193427 0.45020416 -1.5926522 -0.21647361 -0.72991043 0.9876173
enviar -1.361399 -0.6379468 0.39673707 -0.90173614 0.9608366 0.36853427 0.5954094 0.4956035 0.8636303 0.48078838 1.2592753 -2.1488926 1.6326417 0.9984255 2.6092474 -0.6292317 0.8247867 -1.9518348 1.0549964 2.5534134 -0.060568918 0.28294954 -1.1141571 0.28325197 -1.1360487 2.3312433 -2.0422823 -0.4310209 -0.6233803 0.5672922
pertenece -0.512437 2.1710172 0.7814092 0.7742504 0.5881997 -2.1544657 0.97077614 1.0821816 2.788556 -1.0722281 -0.6059179 -1.6209776 0.32469037 1.3837194 -0.5570108 -0.95170325 0.20889433 -1.2372293 -0.49632928 -1.2700176 -1.1271465 -1.138679 -0.632768 0.27244076 4.673132 -3.3360362 -0.029121218 -1.0552617 0.5113721 2.544184
llamo 0.19757876 -0.76536614 -0.14725472 -1.3429347 -1.1614598 0.3489147 0.6276345 -0.1301761 -1.7114367 -0.004864745 1.0183893 -0.4508822 0.8944623 0.24740544 0.7929922 -1.6140667 -0.24137765 0.35352558 0.82004565 1.8097273 -1.192588 -0.2643642 -0.2954993 0.33984196 -0.73176086 -0.2138731 -1.2424583 -0.5881586 -0.020466138 0.19721
ciudadania 1.9402612 1.2448651 -0.38485846 -1.0866231 -1.0966202 -0.38939327 -1.1178268 -1.8266515 0.40087914 0.30098018 -1.436644 -2.5401652 -1.6522682 -1.8991952 -2.87661 -0.5707471 0.44482514 1.0448768 1.7421532 0.5481395 -1.624995 2.6634326 1.0654105 -0.20175152 1.539484 -0.24590619 0.257025 1.3160038 2.8122165 -0.4349193
debe -0.34818944 -0.51506084 0.0028836555 -0.32189277 0.015092712 0.28968307 -0.6218471 -0.35236707 1.2364591 -0.14208862 1.1393335 -0.63726676 0.70709616 0.22936736 0.66811967 -0.33093467 0.32109004 -1.1184773 0.2874651 0.50240266 -0.097337194 0.062041607 0.87275815 -0.1169686 -1.4265478 0.79675764 -0.5619562 0.12608941 -0.058434654 1.6152852
alli 0.032361016 0.34555125 -0.49326056 -0.35704386 -0.29742905 0.18066245 -0.19529945 -0.48350495 0.6075929 0.111764394 0.80989516 -0.7127273 -0.42870674 0.12533534 0.43479833 0.5567983 -0.527705 -0.2368135 -0.19065349 0.44435132 0.5219205 -0.36357114 -0.28672582 -0.009533502 -0.9672289 -0.28874665 0.25872916 -0.6741451 0.23285727 0.362312
mente -0.622632 -0.53750855 0.02003428 0.41677195 -0.028018745 0.48209825 0.16954854 0.37696356 0.29418203 -0.051042713 0.04197027 -1.2523607 0.37760577 0.055616032 0.50834674 0.5954052 0.01324273 0.5397708 -0.69943774 -0.96201766 -0.2753288 0.14407451 -0.22867857 -1.1077353 -1.5518785 -0.35153675 0.2024597 0.00844345 -0.8376505 -0.04034056
estacion 0.7165494 -0.37639782 0.23574479 0.6055988 1.4199085 -1.2425579 -0.09258906 -1.1905546 -0.23973879 -0.6601564 -0.9386412 -0.35283044 -0.1868818 0.16953696 0.67146546 0.21569094 0.21672457 -0.42898765 -0.40876895 -0.22217411 -0.29733136 1.0337338 0.5255038 -0.52811563 0.7133852 0.1319924 0.23301162 0.41116646 -0.6020754 -1.2278879
referencia -1.4173223 -1.9819275 0.22435807 0.53252476 0.7611215 0.24518293 -1.2660738 -0.8379123 -0.83010924 -0.56446093 0.521688 -0.088945895 1.5146035 0.3236009 1.6876557 -1.1653112 2.0484962 0.03585869 -0.79701185 0.7562671 0.53055024 1.2660973 -0.5488317 -0.012843355 -2.0476494 -0.97077256 -1.5824728 -0.75716466 -0.36815697 -0.922874
alla -0.69959074 -2.2690773 0.017848307 -0.028004672 -0.7905018 -0.37986034 -0.4469983 -0.028764103 -0.29731432 -0.2865433 0.9248794 -0.1268612 -0.45385945 0.7918169 0.044393204 -0.13305563 -0.6461848 -0.3837962 0.8777463 1.2169588 -1.1255027 -1.340026 -0.5361303 0.02688568 -0.86202747 0.9119049 -0.7267081 -0.57706815 -0.61518514 0.8813341
tampoco 0.80162674 1.1360989 0.19798888 0.4700889 0.4595457 -0.6503899 -0.18884808 0.17764184 -0.6646205 -0.4566101 0.3674344 0.493671 -1.0148867 -0.07043298 1.0382957 -0.17102903 0.719233 -0.5781547 -0.6738335 -0.13010405 0.17161751 -0.17818776 -1.1170174 -0.22753525 -0.945592 0.24833989 -0.2784141 -0.8338824 -1.1475564 1.9469512
medicamento -0.5201829 0.9533963 -0.5929843 0.71476907 0.28999108 1.1181419 0.44233182 1.4769262 -2.1299655 1.0011001 0.2199956 -0.65322566 -1.4521812 -0.7893596 0.12578444 2.4007978 -3.1136465 -2.0844946 1.3928735 0.20387848 -0.80366015 -0.97479796 0.71067226 0.44824493 -1.3838584 -0.20178515 0.32572463 -1.4144279 -1.325433 1.8672253
podemos -1.6193734 -1.1095701 0.20666122 -0.72881645 -0.40567845 0.042697873 -0.47515747 0.9194103 0.92673147 -0.996378 1.49293 -0.5682106 0.19664411 0.6065509 0.75059193 0.4824248 -0.41794828 -2.0618334 -0.2639303 0.7835832 0.29197913 0.42558712 0.047475208 0.55953676 -1.8558443 0.32930553 -1.1004963 -0.26312396 -1.690733 1.4623048
genera -0.32068726 0.726765 -0.8636875 -1.6112792 -0.7718955 0.436778 0.48546144 -0.18717422 0.84159416 -3.4517534 0.56408376 0.39782804 -0.41088632 0.24890678 -0.93011606 -1.3314308 0.77072287 -1.4518768 0.14907621 -0.83616704 0.10870559 0.72583586 0.02712171 0.056510232 -1.4878244 -0.29251423 -0.084319964 1.7669894 0.34018996 0.31249687
indican -0.49859 -0.8964223 -0.14133953 -0.86748445 0.17659178 -0.13865271 0.21952409 0.6268643 0.3058634 -1.362858 -0.49520215 -0.26478174 1.1021382 1.2574852 -0.15830527 -1.3119019 0.9932652 -1.1787868 0.18597187 -0.6444196 0.16914234 0.86656123 1.1211087 -0.6982506 -0.3673173 0.5612765 -1.1429497 0.45541096 0.5215637 0.8068823
tener -0.57357174 0.021137016 0.49890518 0.9097696 0.30360436 0.18058915 -0.27505016 0.82617366 0.43002295 -0.5880103 1.2883846 -0.21909003 -0.19022737 -0.6842671 0.9795269 0.61174154 0.008982668 -0.14584567 1.182719 -0.37316686 0.4130573 0.2458502 0.9678526 0.3383609 -0.915418 0.2613405 0.60282874 -0.19250199 0.4029515 1.3667793
hijo -0.7068726 2.4416037 -0.39051196 -1.0918713 1.2135545 0.345851 -1.0477751 0.049018234 -1.8889266 -0.75905895 0.79922396 -1.5205269 -0.44889322 -0.2729898 0.36178342 0.5046922 0.04373195 0.81522554 1.3387228 0.11022694 0.41036034 -0.16302946 -0.7992227 -0.327602 1.0377907 -0.7611128 0.8971929 -1.071887 0.1457064 -1.6400057
carlos -0.918599 -1.0870843 -0.5227792 0.5734481 -0.8136218 0.9508328 0.42675602 -1.305267 -1.0756956 0.50180846 -1.9270624 -2.057797 -0.8873849 -0.46706182 -0.7878182 -0.08150573 0.54790163 0.96883494 -0.4047043 1.5754585 -0.76845354 1.3630788 -0.30496135 -0.71320194 1.5829036 -0.3518599 -0.165475 -0.7298851 0.9427211 -0.61155415
entrega 0.1376747 1.261614 -0.5440569 0.17885357 -1.8235283 0.83991575 2.4285007 2.6099648 -1.1051497 2.3804173 -0.2681858 -1.7385894 -3.507444 -0.94653386 -0.62143683 -0.8094177 -3.6506352 -1.0536798 0.98015386 0.8012384 -0.34725043 0.93123364 0.9725637 0.370893 -0.167268 1.2836461 -1.0331758 -0.9891285 -0.84878695 -0.5096285
cuantos 0.112959646 0.98108065 0.61914253 0.55897313 1.3178684 -0.72991115 1.1634805 0.44468555 1.8546677 -2.742897 -0.10554153 -0.0610984 -1.6803453 0.29154873 -0.07122062 0.39743727 1.1964219 -2.2021847 0.40473503 0.63672626 -0.15785125 0.69717443 0.3671352 0.3648647 -1.4570193 0.69817746 1.6620978 0.10995704 -1.5174803 -2.391311
ciudad -0.37358385 -1.035762 0.5195181 0.49242517 -0.28039396 1.8272626 0.7132347 0.2620828 -0.20744184 0.26824343 -0.94162923 -0.09263136 -0.16603172 -0.5750711 0.32902896 -0.39284995 -0.18475221 -0.77275884 1.1816255 0.37595525 -1.720728 0.7133722 0.09295599 -0.24356012 0.025962986 -0.14603037 0.7190017 -0.9517668 0.60135186 -0.43724778
telefono 0.65611196 0.78092945 -0.9257378 2.8665059 -2.4503002 -0.21981089 -1.8912598 -0.14197686 -0.14665408 1.2094594 1.1414614 -0.3771215 -1.6126246 -1.3219428 1.6490993 -1.0972121 -0.2520074 -0.8354125 0.12794794 1.3993521 -1.8085539 0.16407253 1.9954923 -0.52551544 -0.5437587 0.59337735 -1.5790875 2.185547 0.19619167 -0.42870867
medica -2.4397702 -1.0331583 -2.0616653 0.48259398 -1.5137897 1.0221041 2.697774 -2.7378204 0.61091495 0.38651446 0.21072036 -0.6019809 3.1896963 -0.007160795 0.8889355 -2.3212283 -0.29609707 0.1842729 1.6892282 -1.0414829 0.5747102 0.54014736 -0.25738233 0.44972125 -1.3438066 1.142811 -0.4765492 -0.24938786 -0.3732681 1.5373268
cuales 0.34691486 0.29943904 -1.618535 0.33971882 -0.73278475 -0.33851692 -0.7532196 -0.31787574 0.4503161 0.084062725 -0.076205894 0.20031628 -0.14917557 -0.6325353 0.09031373 0.60751545 -0.23245817 -1.4021693 0.12339843 -0.4881175 -0.0633376 0.81763667 0.11246904 -0.31827277 0.99017 -0.19812278 0.12040068 0.18305834 -0.576406 0.4896237
hice 0.15340057 -0.6668276 -1.0687858 -0.5546236 0.054254767 0.5647203 0.5135139 0.7762278 -0.8565571 0.18985528 -0.43030122 -0.18610561 -0.7281495 -0.5870122 0.12623896 0.093056604 -0.4182129 -0.9031841 -0.102709405 -0.035455957 -1.1677114 -0.20909168 -1.086334 -0.023425024 -1.6367986 0.43917775 -0.8380126 0.4457679 0.843524 0.84643817
persona 0.17504627 -0.7661342 -1.3076938 -0.0027299807 1.2800002 -0.74557835 0.50000983 2.0540807 -0.5714639 -0.3475435 0.67398244 0.2707834 0.5688529 -0.28564242 -0.0736454 -1.0316811 0.5943723 -0.68522316 -0.17727241 -0.18670025 -0.29514146 0.5086358 1.0723379 0.47256476 -2.7421384 -0.07274502 0.5810588 -0.29119894 1.1673557 0.0693
centro 1.4664383 -1.2970872 -1.0459083 0.16060041 -0.4593828 0.9581172 -0.21801658 -0.8348437 0.23810539 0.3614263 -0.4379808 -0.1364429 -0.86822087 1.3306817 0.9511727 0.15818934 -0.65253276 -0.0047522015 0.47927004 0.40293545 -0.65707886 0.044003032 0.3298498 0.076014556 0.1819576 0.7643126 0.4095603 -0.26361656 0.4844783 -0.26091835
falta 0.5475383 -0.05959432 -1.2218268 -0.8777015 0.19333002 -0.5267948 0.23396793 0.45185253 -1.0324385 -0.9791755 -0.054823723 -0.8965905 0.09072929 -0.035054684 0.6583735 -0.18268834 -0.41613948 -0.56624216 -1.1771327 0.80195844 0.03271741 0.4301341 0.003449757 0.66994894 -1.0590645 0.88413024 1.4107646 -0.46204028 -1.118639 -0.12075887
nivel 0.6605336 -2.1824114 -0.92732674 0.9225158 1.3644547 0.17696752 -0.74365073 -0.55000705 0.11139798 0.8586805 0.11600667 0.06616787 -0.91220146 0.09180203 1.0126618 -1.0139701 -0.73626894 0.57380563 0.90023965 0.21163759 0.3435102 0.016453011 -0.1351016 -1.5513943 1.9144021 0.83326405 -0.19645005 0.03892059 0.30444822 0.059067756
medio 0.1594664 -1.1461508 -0.22649243 0.624107 0.52195054 0.6564873 0.35887152 0.9088453 1.02795 0.085138425 2.4129043 0.29757816 -0.034124475 0.33409572 0.9343268 0.032821715 -0.05406309 -1.396455 0.5073667 0.49684644 -0.6215024 -0.2635789 -0.28390968 -0.32528976 -0.8183 0.42054075 -0.9097216 0.57596105 -1.3578197 0.2917539
zona -0.5014135 -0.3547625 -0.16103105 1.0718386 0.53979814 -0.94284743 0.7441145 0.6092213 -0.42564753 -0.9599965 0.5781137 0.36376214 -1.0478914 0.7300161 -0.791893 0.17086704 -0.25656313 1.0089679 0.10201665 -0.8528035 -0.64922965 0.4364256 0.8480398 0.016356383 -0.32279387 -0.5856216 -0.0024776906 -0.16403654 -0.11314062 -0.84921736
internet 0.8994417 -0.18811908 -1.0230967 -0.67773896 1.6232703 0.42843395 0.1256513 0.64216673 1.3971268 -0.30158684 1.5408266 -0.32261577 -1.565676 -0.8206434 -0.8062354 0.6482965 0.77675736 -0.49327415 0.068313815 -0.27927497 -0.6712779 0.4115804 -0.57994676 0.035019167 -1.6997883 0.16691084 -0.83206123 1.0458008 -1.1792829 -1.8152198
situacion -0.06529587 0.31234217 -0.62660575 0.035055183 -0.33576754 0.4427011 -0.1787991 -0.5734032 1.001659 -0.29518119 -0.9150052 -1.0576165 -0.3800039 0.9927298 -0.012686828 -0.31547064 -0.5616147 0.3834476 1.760932 -0.43937525 -1.1338854 -0.11799837 0.9030329 -0.17616983 1.3640425 -0.9260356 -0.5344628 0.94767386 1.1796508 0.7412563
toma -1.4542708 0.8792786 -0.7049944 -0.12360922 0.27486777 0.5752856 0.21530281 -0.5377193 0.28265658 -0.56300974 1.0765152 -0.5250263 1.2968135 -0.15695035 0.7406839 -0.57763696 0.07581934 -0.40471163 -1.0868596 -0.59742516 1.5981854 0.20667306 -0.8831657 -0.36700168 -0.3681826 0.7160122 -0.9345493 -0.9049403 -0.6688728 0.054110914
mientras -0.34677327 -1.0253265 -0.14455676 -1.0408447 0.84048176 -0.058484938 0.23605204 0.887711 -0.27336115 0.7388739 -0.16399235 -0.2510925 -0.34580743 -0.27171117 0.34508243 1.6889406 -0.004767706 -1.0613338 0.3232507 -0.706825 0.55092424 0.63558805 0.28629696 -0.23520312 -0.8547939 -0.24693614 -0.361028 -1.0912102 -0.8281591 0.90363544
comunicar -2.0198033 0.24032651 0.538546 0.024052134 -1.5626508 1.5536361 0.7601661 -1.1553985 0.051599234 -1.0540268 1.6365211 -0.75639474 0.92670214 2.2540064 1.5795587 -0.68690616 0.27573025 -0.66110957 0.35440397 1.2975146 -0.6762792 1.0838121 -0.4912352 0.15076277 -1.8726404 0.82398874 -1.7663544 -0.3552549 -0.27897578 1.1504143
cambio 2.0899038 -0.5528012 -1.0932213 -1.0450833 0.517742 0.611498 -0.25979078 -0.623462 1.1863203 0.06316839 0.52656823 -0.93761784 -0.338694 1.4241728 0.05200771 -1.0972568 -0.139706 0.3743954 0.8224 0.39888865 0.18031454 -1.1218288 1.7574872 0.773168 -1.0584154 -0.4029553 -1.0602177 0.45894575 -0.03191606 -0.19280778
forma -0.5063769 0.09775681 -1.060895 0.3035985 -0.8748169 -0.70500976 0.25682965 0.45965928 -0.49511653 -0.8179772 0.5584714 -0.41024056 0.6810605 0.4353488 0.50033396 0.26394746 -0.2817145 0.35081443 -0.6624227 -0.06343294 -0.14493409 0.27138042 0.50728786 -0.9020918 0.33725813 1.435557 0.11305346 -0.28753403 -0.5084997 1.0963532
plan_complementario -1.3638757 2.4545958 0.528864 1.0678002 1.3355669 -1.6376678 2.0071054 0.33495533 2.7492156 -0.41812122 -1.7319682 -2.0859175 0.421475 0.4353582 -1.2035782 -0.9489527 0.39037868 -1.2783242 -0.32701552 -1.9678731 -1.6086166 -0.91129684 0.25217128 0.057772677 4.7088985 -2.5178583 -0.26340935 -1.176006 0.5110634 3.4018793
categorias -1.1778358 2.317362 0.8518274 0.7065749 1.3803401 -0.7574518 1.2618259 1.4077616 0.73996794 -1.5939488 -0.93385005 -1.8200895 -0.077836506 1.2568516 0.06277883 -1.8881925 -0.8493398 1.3772515 -0.49853456 0.5923406 -1.0370158 -0.18770875 0.5209251 -1.9224992 5.2638106 -3.2088752 -1.3236445 -0.4736363 1.838532 1.296507
anos 0.21037892 1.75135 0.04894956 0.41216168 0.60726714 0.64120203 0.6138915 -0.28593132 -0.7131816 -0.70681375 -0.5518441 -0.27345818 -1.4174548 0.5655297 0.15255983 -0.7389263 0.8163453 0.9919612 0.20686403 0.20610385 -0.17119618 -0.40897706 1.9034752 0.39128116 -0.030929536 0.20009153 -0.12084344 -1.578558 0.40749213 -1.3458458
unica 0.7984065 -0.8565966 -0.89789444 0.9669454 0.53455913 -0.66877306 -0.4953155 1.1443307 0.64196956 0.42696562 0.32409582 0.2197276 0.1030726 0.13890874 0.9664737 -1.3219768 -0.032757606 -0.6609409 -0.45401365 -1.1045611 0.17830898 0.45687208 0.47303027 -0.66122013 -1.7889974 1.3286704 -0.61977804 0.30972087 0.5046191 -1.1445955
sean 0.7974524 0.019587696 -0.24316047 1.1076405 0.05735992 -0.11549305 0.56742656 1.0145148 0.47300938 -0.14401864 -0.07509149 -0.88703823 0.10866475 0.8615652 0.6444082 0.4620511 -0.03520533 -0.5807234 -0.01834426 0.34918767 0.030574482 -0.42838433 2.2034554 -0.2630931 0.36559737 -0.48003402 -0.86958176 0.30360302 -0.72741103 0.8479796
cama 0.36644915 -0.86463684 -0.7840528 0.4205914 -0.09729045 -1.3879448 -0.84441304 -0.9410598 3.4159303 -1.2084744 -0.75768393 -0.97915584 -2.8096008 0.016115665 -0.5456862 0.9253056 -1.1706697 -1.5817097 -1.2305886 -0.7756756 -2.1819444 1.3862424 -1.3000368 -0.66268057 -0.17078331 1.857865 1.1252044 1.8375217 -0.46287832 -2.2446108
bienvenido 2.1738727 -0.8438829 -0.4456444 2.3156693 -1.3368698 -1.4072803 1.6436337 -0.68819076 -0.7124471 1.0485684 1.4808537 0.26244068 0.83716166 0.74303675 1.9053689 2.5627446 -0.8289608 0.8020481 1.7107443 0.72877234 -0.97353625 -1.5645999 -2.954516 0.66269517 -0.06780629 -0.10332187 -0.7462196 -2.0964062 3.55495 -1.3476303
area_medica -1.2841376 0.5262931 -0.68803257 -1.0517561 -2.1942263 1.4982054 1.9248286 -1.8117187 1.658672 -0.20389028 0.06020406 -1.9165825 2.4630156 1.5140973 0.050573386 -1.6148874 0.2058493 0.81639135 0.2207183 -1.1057191 1.6336871 1.5719817 -1.1589043 -1.3689163 -1.9010923 1.8981981 -2.7468123 -0.78825366 -1.1688699 1.3825071
intensivos 2.2428923 -0.53318536 -0.96352696 -1.185405 2.357622 -0.12924784 0.2820144 -0.227729 3.6352246 -0.6426688 0.45025048 -0.53674996 -2.3756864 -0.26191086 -0.37921804 0.6652105 2.751536 -2.5922544 0.6039854 -1.7146062 -0.14091554 1.7694811 -0.4967919 2.3702445 -1.1459323 0.30693817 0.9630486 1.4085574 -1.482103 -3.4697287
siendo -0.22529846 -0.37774745 -0.03474646 0.3454137 0.72515327 -0.09662344 1.097745 0.14583156 -1.2223963 -0.70445013 0.4262682 0.7811898 -0.35853213 0.9556536 0.9299022 -0.7611621 0.75843364 -0.79884154 0.08344256 -0.4553887 0.79740113 -1.3590292 0.07291655 -0.28235212 -0.011591893 0.14876372 0.2598648 -0.8896327 -1.1430668 1.3500496
haces 0.19256423 -0.34782082 0.2497913 -0.62195015 0.75725687 0.4176834 -0.432119 0.0767923 0.29902914 -1.0050976 1.2148424 -0.40359548 -0.09351038 0.10761557 -0.090703845 0.5075688 0.64760524 0.0023004508 -0.064172134 -1.1071041 0.22153264 0.79534835 -0.4014527 0.9100906 -0.6850115 0.23621021 0.097197674 -0.7849508 0.4036058 0.50458795
noche 0.61418706 -1.5825928 0.65206426 -0.7863681 -1.2759302 0.8881503 0.1642306 -0.7050535 -0.06093148 -0.89872724 0.0852136 -0.831872 -0.7464397 0.76326156 2.7332823 -0.6373571 -1.0721977 -1.1988393 -1.1795578 0.3225156 1.8290731 1.3284982 -1.2400836 1.40094 -2.3241303 0.21107131 0.008190788 -0.4179895 0.12826405 -1.4860936
solicitudes -0.3394613 -0.26648453 -1.9731196 -1.9248918 1.4278028 0.32531586 -1.1041149 -0.44351453 0.3564507 1.963638 0.06057555 -2.6002817 1.3954618 0.82161134 2.1870866 -1.285919 1.0846406 -0.09752903 0.026368244 -0.08901004 1.9124764 0.55292404 -0.6813746 -0.8780344 -0.70622915 2.0723333 -1.6765064 -0.663432 -0.2606962 1.9069425
minuto -1.5787814 1.126948 0.6643505 0.5853697 -0.61804444 -1.155097 0.43796676 0.015896777 -3.078557 0.056730106 1.1891755 -1.5565059 1.1662035 1.3520743 0.7338971 1.7003078 0.28909698 -1.3656102 -0.72681326 -2.2053013 -0.2536055 2.22343 0.6255466 -0.38029695 0.18503721 0.67985135 0.8651134 0.32586756 -1.7536186 -0.060517993
plan -0.7729648 1.6051493 0.65197355 0.84041685 0.8462127 -0.5856662 1.1349051 -0.10966392 1.6285446 -2.2247744 0.062004138 0.7297072 -0.25407827 -7.3952135e-05 0.19862735 -0.5023706 -0.7349228 -0.13707452 -0.079486296 -1.0908105 -1.0928116 -1.3480309 -0.27250165 -0.14065516 1.5585793 -1.4710101 -0.075532645 -0.86614686 0.015460193 1.0812446
civil -0.25307906 2.0063748 -0.63637155 -0.66134775 0.24308437 0.1667012 0.13142571 0.4902009 -0.40890402 -0.029757828 -0.16533087 -0.86380064 -1.6443609 -0.7636143 -0.86082375 -0.36945868 1.1461556 0.477298 1.169939 -0.020937283 -0.23995161 1.2467949 2.1694288 -0.7695334 1.0005747 -0.22060293 -0.4446301 0.100182675 1.5033349 -1.1294948
proceso -1.5578536 -0.48377863 0.020210912 -0.6569322 0.4917924 -0.62906355 0.9794819 0.51397 0.80995345 -0.25828478 -0.31259578 0.697007 -0.67776775 0.998455 0.30557936 0.5559188 -0.8704906 -1.2790998 -0.048063815 0.44369575 -0.7635585 0.9123536 -0.08284614 -1.311524 -0.85057324 -1.45355 -0.9752321 -0.6288391 -0.8834807 1.9320612
manejo -1.5034032 -0.7187774 -0.9634564 0.6382622 1.8056108 -0.024149254 -2.0480206 -0.22691835 1.0766662 -0.2635899 1.7914057 1.6255982 0.4115025 -0.16622393 0.5383734 -2.4069915 0.34740564 -1.3677254 -2.2570937 -1.0573887 -0.42525846 0.162459 -0.9336264 -0.3183016 -0.55644006 0.13264455 -0.4103511 -1.960108 0.19220102 1.3878169
pendiente 0.50996274 -0.23797935 -0.09406966 -0.8298452 0.24596705 0.63342255 1.8905182 -0.1944849 -0.46655068 0.14035791 0.58094 -1.163953 0.40948448 0.540418 0.5714259 -0.6312552 -2.081992 -1.6072744 0.049346082 1.1836958 0.29337266 -1.7813598 0.32985735 0.642099 -1.5135773 -0.70237815 0.20157023 -0.42709774 -0.586215 0.67087364
digame -1.1111197 0.015566185 -1.1520315 0.5872328 -1.2417381 0.56594217 0.16249353 0.88203174 -0.45964924 1.309464 0.714854 -1.0458424 0.054164153 0.015455402 -0.1784829 0.6138177 1.1260518 -0.45925966 -0.93079007 -0.9382077 -0.37189373 0.36080366 0.011526109 -0.9000503 -0.15117463 0.31589547 0.3793842 -0.52365947 1.2099733 -0.12250478
problema -0.10969691 0.5304989 -0.51854074 0.1767295 0.48108184 0.6641765 0.08557611 0.91041815 -1.3571125 -1.1616969 1.8340063 -0.51457304 -0.838421 0.31661332 2.453937 1.0513624 -0.49912196 -0.044144973 0.6718463 -0.43387243 0.8168479 -0.30475244 0.65101635 -0.1791947 -1.5908551 0.528985 0.30483288 1.6309772 -1.3721772 1.7873702
intermedio -0.37211594 1.7563258 -1.6685141 0.3172926 2.9052339 -1.5233414 -0.2781314 -0.51464665 2.9136484 -2.980435 1.1282735 -0.614971 -2.4405725 -0.24554382 -0.0071385317 -0.40894374 0.8976723 -1.1525004 -0.52723116 -0.36281613 1.0813291 1.0002075 -0.5110021 2.3412635 -0.94788 1.3832567 0.4963554 0.98270833 -0.59506226 -3.6250052
quirurgica 2.0464973 0.885732 -1.7565274 -1.2121228 -7.028025e-05 -0.10616195 -1.187517 0.86109084 1.1179794 2.2444084 1.1144328 0.009723047 -0.9548835 1.8660101 0.7955352 -1.5635326 4.1919694 -1.6913075 -0.99061495 -2.8465176 0.81487036 -0.4026323 0.34264094 -1.5274694 0.3072362 -0.4356121 1.728554 -0.821824 0.2985417 0.044330087
dentro 0.054466214 -0.3991596 -0.46248305 0.15387505 -2.1442604 0.1719302 0.93562543 -0.26437536 0.91886014 -0.4973254 1.5360252 -0.8598637 -0.33700606 1.5003818 0.50957936 -0.94894284 -0.33438545 -0.5182343 -0.238487 0.016978083 0.8723666 -1.129439 -0.016617367 0.23527397 -0.96650624 1.3393103 -1.119235 0.6791251 0.28788605 1.089844
datos -1.3918148 0.6944748 0.34857532 1.184366 0.4006298 -0.7019229 -0.23600426 -0.68117416 -0.60568434 -0.72071636 0.88636786 0.749112 1.5054286 0.26821563 1.2808214 0.05368649 0.4880165 -2.4359908 0.53959864 0.52423865 -0.013190502 0.016300451 0.9480176 0.09715347 -1.108148 -0.26670662 -2.1054158 -0.13431555 0.38684955 1.1520549
juan -1.2040844 -1.3021144 -0.124888346 -0.22805715 -0.21879381 -0.34321246 0.22244069 -1.1709102 -1.7678325 0.31389475 -0.70235896 -0.2836577 -0.68506783 -0.42673346 -0.6303015 -0.19744928 -0.2815216 0.1646572 0.3194607 1.9738363 -1.0298455 0.38520825 0.9743665 -0.5376684 1.7720158 -1.0017761 -1.3009287 -0.99746156 1.8396981 -0.97604454
siente -0.31310147 -0.42721546 0.5716213 1.8990648 1.0071356 -1.6063619 -1.1179295 -0.44347662 0.775898 -0.48521727 0.5939243 -0.33656326 -0.13825546 0.9220243 -0.46901846 -1.1532493 0.7588454 -0.44873995 -0.665625 -0.62770855 -0.17359783 0.16835059 0.47680226 -1.3512192 1.5054623 -1.3203595 0.35301396 0.5898539 0.57317626 0.9991463
zonas 0.39469627 0.133785 -0.5768766 -0.06395971 0.9276461 0.5377316 0.6777924 0.26731077 -0.450706 -0.41068834 0.97282225 0.2702596 0.37641874 0.84525913 1.1002727 0.38552272 -0.5146823 -0.33070013 -0.0643349 -0.9419613 0.15396352 0.701779 0.27338582 0.2722242 -0.72839355 1.4111191 0.53032595 -0.955134 1.4983057 -0.8112876
nino 0.26597044 -0.64762414 -0.1491559 -0.5053824 0.679033 0.9218042 -0.0013036408 0.32591593 -0.48345104 -0.5195033 0.68547714 -0.36716557 -0.7196279 0.58682853 0.0247085 1.9253498 0.4758043 0.5632469 -0.06472711 -0.24043773 0.78032917 -0.24036266 1.0592455 0.10472256 -0.113146394 -1.4611998 -0.7420447 -0.9075054 0.00085019873 0.37179703
verificar -0.12627783 0.95476973 -0.44049823 -2.2898023 -0.6355005 0.96847796 0.8816756 -0.7438297 0.71141297 -0.52476084 -0.14966682 -1.2980323 0.32379943 -0.6416793 1.0019981 0.5133141 -0.31816474 -0.8855766 2.1755023 0.76007766 -0.70633143 0.7415014 -0.99271613 0.7710924 -0.06922687 1.3577434 -0.35602492 0.22926731 0.83818233 1.6453319
vino 0.27847758 -0.12007192 -0.57514375 -1.1003033 -1.023479 0.8650326 -1.383775 -0.15752664 -0.4818304 -0.91012865 0.7998207 0.025604373 -1.9357258 -1.138259 -0.09610074 -0.6707077 0.42460078 0.363949 -1.1260761 0.4989946 0.23228648 -0.61846966 -0.20221408 0.02310337 0.4082151 0.3874346 -0.7503225 -1.0961614 0.124306895 -0.566408
eran 0.75849223 0.61479264 -0.036113493 -1.30425 -0.29375342 0.2781862 0.65503526 0.91203034 -0.07461026 -0.43323192 0.30129725 -1.447408 0.33284235 -0.32164332 1.3185989 1.295019 -0.7902635 -1.3410484 -0.38096914 -0.25907594 0.7789359 -0.46047074 0.5661267 0.9973177 -0.07387228 2.3010402 -1.3895843 -0.65406376 -0.286902 -0.86081654
ninguna -0.6516273 0.3587572 -0.5562234 -0.4543715 0.8205777 1.172584 0.33090407 0.5351962 0.3671648 -0.46902964 1.3834642 -0.08947201 -0.29850304 -0.7247158 0.8682037 -0.35261813 -0.79814905 -0.09946425 0.11145254 0.18848808 1.1185453 0.14216638 -0.86484015 -0.1019378 -2.0152795 -0.6904198 -0.27479956 -0.48566833 -1.8738328 0.75516015
serian 1.0804478 1.1689482 0.32557863 0.6978808 0.77565724 -1.4166213 -0.45589334 -0.76452917 1.6103909 -0.3217427 0.6774285 -1.2603917 -0.34866813 -0.27796236 -0.0038115298 -0.4617973 0.1884561 -2.0370562 -0.6882721 0.28981927 -0.34897894 1.8310632 1.9796598 1.13148 -1.8790897 0.8953135 1.1806542 0.6532121 -0.81007135 -2.4794974
funcion 0.13827257 0.6082585 -0.047126085 1.1762023 0.67083716 -1.0721735 0.47233865 0.044094313 0.7985681 0.32746527 0.1684729 0.043648932 -1.6603955 0.46049622 0.88233244 0.5425487 -0.06314453 0.50497043 -0.33778936 -1.7212384 0.2842672 -1.2174703 -0.59362334 -0.9663163 0.8199722 0.0024182282 -0.292433 -0.46351594 -0.6109304 -0.2648705
autorizado 1.2000332 -0.7154874 -0.19430931 -2.302354 0.74924904 -0.80441856 1.3761882 -0.71503913 -0.7784186 -0.23042457 0.45269316 -0.6482763 -0.99359256 -0.48729038 -1.0097874 -1.3161676 -1.5777065 -1.720866 -0.568414 0.7177043 0.74977344 0.7801354 -0.18440597 0.16179298 -0.97518814 0.7120704 -1.3538648 0.589852 -0.6149878 1.2956626
numeros 0.073973134 0.65552306 0.07575428 0.15048246 -0.096649215 0.035490375 -1.0059766 0.055209152 0.41308463 -0.4361764 -1.129128 -1.679105 -1.1062038 -0.78254306 -0.802691 1.2872145 -0.057900153 -1.3319124 -0.22925456 -0.023795707 -0.67169267 1.1083002 1.7088718 -1.02116 -0.560993 0.5444563 -1.109467 1.5481851 0.70304847 0.1153317
facil -1.1660894 0.32758552 0.349402 0.5013393 -1.2363621 0.19573355 0.36922786 0.51552695 0.5853734 -0.4735406 0.9504832 -1.0626458 0.22621357 -0.65745234 -0.24233596 1.0444323 0.063862264 -1.1814299 -0.7248164 -0.1668465 -0.5566439 -0.097808145 0.16802813 -1.6108878 1.2630349 -0.05743005 0.32347226 0.15186307 -0.037579272 -0.30799258
mundo -0.64800876 0.81214947 -0.6000285 1.5310925 -0.102198154 0.3569147 0.5951913 0.47748148 0.52895516 -0.4304845 0.38831604 -0.55725 -0.8887822 -0.7904788 0.6026757 -0.0005147895 0.8522005 -0.017927006 0.15450643 0.67275876 0.075417005 -1.0246145 0.17767881 -0.21956831 0.46885228 0.6108228 0.38299385 -0.32278103 -0.11806009 -0.13957544
accion -0.08568146 -1.313597 -0.76899034 -0.4094571 0.06394879 -0.50427186 0.58876735 -1.5893289 0.2973004 0.095636755 0.389213 1.0265896 -1.0234294 1.7107157 0.78642106 -0.30962238 -0.5950855 -0.65347236 -1.3331997 -0.949235 -0.7135082 0.4654463 -1.1460273 0.29605943 -0.7767395 -0.82666796 0.44339496 -0.6630082 -1.0048087 0.73274285
interes 0.92022145 -1.1693041 -0.46776518 0.7600935 1.3331954 -1.0158852 0.21826959 -0.32936636 0.6927491 -0.5917812 0.31440863 -0.48942178 0.78128374 -0.6482864 0.14467913 -0.13887504 0.7884599 1.3038487 -0.06292091 0.20681243 -0.09519415 -0.2555386 0.3782586 -0.45873865 0.77905744 0.5481217 -0.19914702 0.082632326 0.40115103 0.8882474
contra -0.34499326 -1.7381055 0.5596828 1.3427048 0.98236823 0.19737843 -0.1597869 0.78392965 -0.024790764 -0.63279575 0.90981305 0.21219678 0.43059033 -0.70466655 -0.44208091 -2.0798354 0.56920934 0.61237985 -1.2292181 0.98663384 -0.12935556 1.640339 -0.79372555 -1.3225958 -0.7210357 0.361807 -0.5821195 -1.3612654 -1.3380731 -0.8139484
sido -1.4243397 -0.038573835 -1.0697736 -0.7285806 0.7918427 0.05320217 2.4624698 -0.24372771 0.69223565 -0.66062635 0.8333905 0.15959927 0.4174663 1.1550666 0.08406703 -1.587953 -0.124263786 -0.062682055 1.1056126 0.9783608 -2.0704453 -0.34339935 1.138135 2.182267 0.026791532 -0.26162368 -1.1286069 -1.088818 -0.8609146 0.996005
seiscientos 0.41315043 0.7946305 0.18199956 -1.3904626 0.50578 -1.1139631 -1.3147957 -1.4710696 1.1651393 0.7031174 1.1782988 -0.51175773 -2.7405276 -1.2000623 -0.29466283 -0.7707536 -0.3038702 1.4481502 0.29702953 -1.8807833 0.18381205 1.9561638 1.3702964 -0.2450606 1.8754852 0.024491837 -0.85489947 0.46373862 0.9252491 -1.1879132
pueda -2.022093 1.0208997 0.5790659 -0.7940951 -0.34694168 1.1907227 0.8731492 -0.25312018 -0.030228725 -1.4426407 1.9094319 -0.19973727 0.19510695 0.77299964 1.1026121 0.17528614 -0.22247706 -1.1663516 0.18458165 1.469995 -2.1312053 0.5170325 0.25443077 -0.029925747 -1.2293533 -0.4056888 -2.2912533 0.50245345 0.005514167 2.5680385
media 0.23020445 -0.2595575 1.0501199 0.49240774 0.4608468 -0.39251176 0.39115274 -0.71044827 0.6820829 1.2349348 1.4896787 -1.2898948 0.584161 0.16748197 -0.115974165 0.4710463 -0.5429367 0.118359424 2.3936937 -0.4299194 0.5484142 0.65689296 -0.22081508 -0.3288852 -0.98084915 0.43453017 -0.8523285 0.020456346 -1.29117 -0.48587307
tuvo 0.5895704 -1.0502473 -0.4653897 -1.6919668 0.66433233 -0.91781604 0.78566515 1.1833695 0.067820534 0.06941296 1.2105925 0.052306283 -1.8400501 0.36328658 -0.004321621 -0.28975236 0.2588347 -1.2436233 -0.20030399 -0.53855956 0.6808267 -1.5359762 -1.2244056 -0.14038225 0.20788418 0.051332843 0.27867424 -0.5294045 -0.5801214 -2.1546743
validacion -2.3579733 1.8491336 0.2516376 0.8797311 -0.35704544 0.905176 2.0593483 -0.5742451 -0.37614202 -0.2964278 -0.15513314 -2.2030578 1.3312026 2.3587744 0.30449167 -2.0657547 0.97115743 -1.6034656 0.37816265 -0.50042987 0.17393053 0.36888108 -0.61683434 0.5815976 -0.29548594 -1.2639245 0.3164528 -0.42204043 -0.12622172 1.2951038
peces 0.08421244 -0.7760265 0.77558297 0.078781776 -0.33480763 0.8663744 -0.2017451 0.1775021 -0.19711213 -0.64846754 1.2898246 -0.548991 0.21849391 1.5044168 1.0716236 -0.95578814 0.9203403 0.8993445 -0.23366962 0.41961908 -1.0990373 -0.08777722 -0.62973166 0.07294093 -1.53115 0.12640686 -1.5523096 -0.25521317 1.6168268 0.6300918
oficina 0.2330534 -0.907048 2.0438082 1.5610492 0.13839051 0.074560836 -1.6138173 -1.0410568 0.61884326 0.7029682 2.0656593 0.85106987 -0.3434152 1.1313281 0.1929473 0.118088186 -1.9059641 -1.1411439 3.2902286 -0.3463303 -1.345261 0.6637428 -1.0042387 -2.173591 -0.45693514 -1.1776471 -0.6418 -0.20772004 -1.9751642 2.6824827
actualizacion -0.44617236 1.0545019 0.93544364 0.20657319 -0.2617547 0.910486 1.0046082 0.32713258 0.030464903 -1.4749949 0.58098704 -0.565176 -0.38901198 -0.45616338 0.72603023 -0.32676 0.6326019 -1.64766 -0.41984713 -0.23451819 0.40750274 1.0720127 0.12907836 0.080153875 -0.56490976 0.66018313 0.15331513 0.51711416 1.267958 -0.78683865
sabe -0.51121914 -0.75946295 -0.22714733 -0.07458743 0.5236179 0.3802085 1.00473 -0.67952305 -1.3587841 -0.47645494 0.7931286 -0.17332564 0.09764514 0.33212903 -0.17557134 -0.022728834 -0.078292064 -0.3098253 -0.69672656 0.28702414 -0.08953657 -0.27465966 1.2226609 -0.8463555 -0.4029725 0.5604382 0.36545104 -0.18434389 0.1414546 0.3348171
formula -3.170519 -0.12854972 -1.0965782 -1.2975128 -1.8462776 0.1653763 1.0553079 2.1816845 2.3966331 1.8349 1.3353848 -1.9639376 -0.40378565 -0.15470763 0.34101775 0.9296962 -3.556944 -0.8434121 0.43021008 0.47418886 -2.0665998 -1.6079525 0.44865492 0.41933808 -2.5696568 1.3347749 1.2531935 -3.3304245 -2.0276012 1.4262441
usuario -0.4081499 2.2361758 0.3868968 -0.39037275 0.7779537 -0.98670554 -1.7986988 -1.068245 1.674433 -0.04148713 -0.7495299 -1.3279982 0.04579641 -2.010922 0.5977726 -1.3425661 0.56864583 -0.32599202 0.28343925 -0.6274541 -2.2747574 0.03216834 0.19029197 0.5539476 -1.2602278 -2.7374258 -0.4301237 0.45091456 1.9528928 1.6190872
luis 0.05704468 -1.0959524 0.8603085 -0.57527924 -0.8754785 1.576819 -1.404783 -1.4807516 -0.72834754 0.39900187 -1.2746556 -1.4506272 -0.026513763 -0.5066957 -0.1473991 0.39537197 -0.086999856 0.64075565 0.088426195 0.397576 -1.694192 1.8396899 0.009712743 -0.47442868 3.0028186 -1.5676047 -1.1218373 -1.0293101 1.6871713 -1.1846122
hija 0.48959717 1.3086952 -0.23937815 0.6106728 -1.2434564 -0.14622054 -0.24050485 -1.055779 -1.1662918 0.16827534 0.51694757 -0.42852157 -0.89143926 -0.2357118 0.81428266 0.72933865 -1.4569174 0.6325895 1.6015818 0.013029602 -0.47027737 0.36665994 0.14381328 0.5630603 -0.5222488 -0.8355178 0.51143855 -0.06026642 -0.15169953 -0.04665951
habian 0.81854033 0.6344123 -0.77649313 -1.8957559 1.360159 0.14064519 2.052011 -1.3090769 0.41327724 0.9812052 1.7048738 -0.30603364 -0.5102498 -0.40831786 1.6682023 -2.8306513 0.18414812 -0.9701679 1.9070939 1.4221635 0.9432602 0.43050072 0.50670296 0.58386225 -0.88257474 -0.65454614 0.40614256 0.56163 -0.93674684 1.0751961
encuentran -1.7007037 -0.13898459 -0.39788917 0.5086112 0.75474024 -1.0517992 2.7993636 0.91450375 1.5012118 -0.83587885 -0.2744773 -3.052106 0.6341407 0.67380595 1.4819496 0.63192344 0.78929496 -0.27451888 -0.85379463 0.72371376 1.4180077 -0.4544841 -1.1547778 0.014526876 2.3642178 -0.7644143 -0.049671963 0.9432713 0.12277359 2.5769317
celular 0.7032473 1.8435507 -0.7216562 3.11578 -2.3486369 0.5761988 -1.7832812 0.7527007 0.36361966 0.94257456 0.7880762 -1.8091804 -1.7531753 -1.1850538 0.97134984 -0.087122746 -0.64739954 -0.5850447 -0.48460343 0.45742452 -1.8367 1.1462945 1.262883 0.49235436 -0.29617774 0.34495345 -1.8725833 2.2437346 0.70531464 -1.441668
internacional -0.22273502 -1.7195725 -1.5204055 0.53745735 2.1767285 -0.6499924 1.2852995 0.863391 1.652662 -0.81796694 0.36405048 -1.375094 -1.711918 1.5055068 -0.5756542 -0.7495026 -0.20446931 -2.0358405 -2.077381 -2.3539057 1.4106556 1.5322119 0.92581046 0.5942976 0.051961076 -0.18643671 1.2916052 2.0917168 -0.6853728 -2.9041991
fuera 1.8113511 0.0071159326 -0.28679037 -1.6679276 -0.3938456 0.35803735 0.114339985 0.13210814 0.9500753 -1.5554802 -0.7304286 0.40922597 0.44716525 0.29711208 0.8742504 -0.0717541 -0.97578734 -1.3102641 0.12055998 0.9489562 1.1125321 0.025332052 0.8035663 -0.06873607 -1.0157777 -0.4558799 0.60851854 -1.6966996 -1.1232505 -0.5115295
remision -2.909056 -1.7578789 0.8676164 0.9891375 1.246041 -0.76070666 -1.6446484 -0.22399095 0.25749293 -0.50619596 0.07146222 0.45614916 0.72932345 0.97081083 2.3787978 -2.9894054 -2.4065084 -2.4189634 -0.073456235 -0.41917124 0.23692133 2.2421093 -1.487118 0.0055909953 -1.8700447 -0.5064857 0.50318694 -0.9873691 0.90097076 0.8646433
unico -0.11470427 0.5968648 -0.62955266 -0.11806035 -0.84609693 0.8286075 -0.79979813 1.2891883 -0.90720606 -0.6738106 -1.223169 -0.40444028 0.30690122 0.23826532 1.2864771 -0.8819766 -0.8293338 -0.11755317 0.5045065 -0.26057196 0.5527144 -0.73123 0.15106244 -1.640122 -0.8223651 0.42637992 -1.8891945 -0.39094532 -2.5384068 0.32735965
comunicando 0.022997934 -0.5208098 -1.292356 1.0782709 -1.3280758 2.2675097 1.1036924 -0.86556476 1.2329041 1.4433057 -0.8401116 -0.67193174 0.4055025 0.8705394 -0.055586137 -1.2784026 0.70098275 -1.1767327 1.5193058 1.0907481 -2.502445 1.6216922 0.4706706 -1.2693219 0.06309561 -0.82890296 -0.57214344 1.0713519 0.15199342 1.7356458
saber -0.49138165 -1.3053256 0.24240117 -0.033854835 0.02732206 -0.42632887 -0.09525032 1.4360862 0.46745405 0.53450775 0.43353558 -0.6412424 0.19982456 -0.11255361 0.98659253 0.45975626 -0.2811147 -1.2046523 1.2665701 -0.06451013 -0.0065700226 -0.7307086 -0.3968624 0.13202113 -0.33240992 -0.4184582 -1.0187266 -0.15015553 0.03024976 1.4641051
plataforma 0.75928754 0.7273199 0.58475167 -2.7302396 1.1088105 0.99514806 0.9989547 -0.115864545 1.3731647 -0.8261268 2.191765 -1.0995814 -0.5148014 -0.45196268 0.68159586 0.5196735 1.2005888 -0.09976348 2.3829865 0.26273984 0.48830444 -1.2159705 -0.8808255 -1.3645055 -2.5728624 0.6208896 -1.1291698 1.5957174 -0.27645308 2.1136541
llamas 0.7305109 -0.017015157 0.20502755 0.56105626 0.16401412 0.7778894 -0.0027248873 -1.1300585 -0.9635231 0.123034194 1.3471009 -2.0520763 1.3152245 0.13456722 -0.9077334 0.32865927 0.21872118 0.60845125 1.0291537 1.8275659 0.058934513 0.3968657 1.2223525 -0.25102723 0.6588514 -0.05522037 0.2948533 -0.09347999 0.26564968 -0.016248647
salio -0.27159795 -2.0053968 0.11789956 -1.3997483 -0.63757133 -0.3689573 -0.9011081 -0.1038459 -0.31233364 -1.6561617 -1.9426969 -2.7316463 0.25602123 0.755041 0.47238514 -1.4108286 -1.947503 -0.5895512 -0.39191514 -0.1634272 -0.37818822 0.80036026 -0.0539369 0.7377286 0.6798224 -1.4632988 0.52456933 1.44992 0.15599166 0.26580107
varias -0.62766695 0.7639825 -0.009079558 -1.1793342 -0.75722736 0.48516616 2.1653986 -0.38659692 0.82093257 0.9727774 0.73862225 -1.9073895 1.4007013 1.6523296 0.4121596 -1.3143642 -0.8953938 -0.14831014 -0.36521965 1.6243759 0.042854957 1.0193292 1.3687701 -0.44527042 -0.6496837 -0.3647959 0.5633095 -1.744897 0.9902443 1.4866107
algunos 0.63580674 0.8133491 0.01742238 2.2853506 0.09778848 0.21188779 0.15872434 1.3189756 0.13930114 -1.0787772 -0.6328078 0.058796506 0.3273333 0.35023174 0.7468971 0.5608132 0.59833115 -0.041221585 0.61995137 -0.24532342 -0.11109824 -0.3199829 1.4008505 -0.8102272 0.069300406 -0.066323355 -0.81933725 -0.09279799 -0.7186136 1.7065128
quizas -1.2756234 0.44814888 -1.223124 0.40213162 -0.9642161 0.54224545 -0.6081279 -0.6173755 -0.71824795 -0.5030313 -0.40290815 -0.30523175 -0.21619977 -0.3154877 0.8702645 0.6648171 0.90156376 0.13638884 -0.8257484 -0.32684755 -0.9858756 -0.3937855 1.3506001 -0.24493124 0.017686564 -0.5806063 -0.34564653 0.025854437 0.05400146 0.98428184
tema 0.21912706 -0.9781125 0.21007356 0.6017071 0.77673924 0.45881122 0.80146503 -0.3597507 -0.29980022 -0.06927015 0.5507627 -0.03576297 0.5762493 0.37054777 0.886289 0.49544966 -0.64361924 -0.25348204 -0.15584907 0.30090314 0.08006652 -0.14049378 1.5334259 -0.19023237 0.04702469 -0.627384 -0.026304679 -0.47912234 -0.08173984 1.0013841
manera -0.16462266 -0.95736426 0.093392625 0.44456142 -0.8080323 -0.5562266 1.2850734 0.012237054 0.45710275 -0.3422156 1.288762 -2.965075e-05 0.842108 1.3197777 1.6808085 -0.30742416 -0.28346387 -0.41397193 -1.0408965 -0.21332842 0.0039163064 0.5258841 -1.1550224 -0.7541267 -1.1378742 -0.88200426 -1.3045459 0.8514433 0.7080874 2.0323513
valen 0.19011554 1.0863336 -1.7685289 1.0121877 0.8846214 -0.11444756 -0.8052685 -0.5398542 -0.631157 -0.95552456 -0.11724594 -0.012854411 -1.9715106 -0.33578596 0.13589597 1.5447959 0.010112509 0.23069522 -1.7443734 0.5022132 0.5272113 1.1341621 -0.8547098 -0.627498 1.3585654 0.733387 0.6859014 -1.2024467 -0.8662098 -0.30972135
ambulancia -1.6878202 -1.6723807 -2.8787482 1.2875117 -0.30895808 1.0177783 -0.43871218 -3.2502153 0.51537555 -1.8456606 2.991391 1.8949744 0.24974887 -1.4930692 1.0127172 -2.8014681 0.50941336 -0.14027774 0.3066028 1.4185396 1.588717 -0.41399276 -1.1316565 1.3719363 -0.99597085 -0.540215 0.065074444 -0.31177655 0.4068919 0.54706925
estados -0.4791293 0.62114704 -0.09460994 -0.8600664 0.44540352 0.100064695 -0.10863706 1.1468066 1.8188329 -1.9021013 0.3245001 -1.6543161 -0.6466928 0.047564477 0.48228574 -0.5270647 0.9487461 0.6473195 -0.28359327 0.2349811 -1.1411482 -0.8472207 -0.19541042 0.16696858 1.7279793 -2.4957943 -0.0025705344 1.1014307 -0.60182893 0.41832474
conoce -0.45329225 -0.85937876 -0.38096854 -0.148963 -0.4065323 0.0068521453 1.8597474 -0.10170738 -0.889438 -0.13872005 0.42652398 -0.43254358 -0.09508978 0.7751309 -0.5254885 -0.604908 1.5139563 -0.039911114 -0.9942205 -0.9682984 -0.48342925 0.3277531 0.4845615 -1.4261374 -0.67234755 -0.12385057 -0.22101794 1.1714528 1.0939571 0.22206399
somos -0.09850993 -1.6022184 0.5118134 0.43637812 0.24395296 1.349796 0.23137234 0.07610561 1.1392605 -1.4698179 -0.20042722 -0.22523531 -0.6895249 0.5053119 0.8212104 -0.042692836 -0.6617455 -0.8617598 0.8179407 -0.4292276 1.9229404 -0.18323176 1.2738159 -0.12557444 0.44195464 0.7317118 -0.1881171 -0.081799254 0.13506058 1.6530541
validando -1.1234392 -0.9228223 -0.5703645 -1.2442274 1.1512605 -1.8010676 1.1910658 -1.3702911 -1.4500566 0.53313607 2.5567026 -2.6684253 1.6747421 0.46538004 -0.62351567 -0.29239509 0.23029545 -1.9205389 -0.8187325 -0.87542814 0.40009505 1.2805775 0.23066702 1.3022355 0.48693365 0.24373855 0.8391533 1.550767 -0.68825805 2.730187
quiza -0.24639738 0.6362929 -0.072065726 0.6382504 -0.61744475 0.5833351 1.2416304 0.82555246 -1.1566035 -0.7430248 0.17441262 -0.9371234 -0.40653127 1.1777399 -0.115027495 -0.8605122 1.0951821 -0.3955694 -0.7065571 0.11028906 -0.13959245 0.3654457 0.5504339 0.07897834 -0.5056252 -0.08081335 -0.3522154 0.37929484 0.12666808 0.52500504
lista -0.2752017 0.9966374 -0.9630288 0.43074948 1.0053502 0.28247115 0.14176604 -0.86077434 -0.25752062 -0.96153164 0.43950903 0.334987 0.08675701 -0.50275016 -0.5733155 -0.34580034 -1.1415994 -0.9126788 1.3258464 -0.47184077 0.5514571 -0.7303534 -0.22427583 -0.30969173 0.2097148 -0.580894 1.1488284 -0.29604086 -0.3183977 1.9264766
aunque 0.2966626 -1.3321958 -0.79366827 0.98877347 0.27913472 -0.93993276 -0.71311516 -0.35471788 0.35720056 -0.7214433 1.5694451 -0.3521078 0.07133774 1.2764484 0.6111471 1.032095 -0.22893351 0.48285663 0.20602809 0.33710632 0.09353854 0.37863213 0.21508802 0.070168465 0.055051833 -0.24331258 0.21182016 0.83147234 0.09745483 0.2580768
setecientos 0.8352565 1.7658947 -1.219941 -0.78434056 -0.1631894 1.5778738 -0.40510726 -0.84429306 0.85741115 -0.86587363 -1.5777602 -0.7399454 -0.42555466 -2.2255938 -1.0093179 -0.24259473 0.13402689 -1.1940097 -0.076792724 -0.10238699 -2.0239465 2.0960195 0.7217498 0.26501212 1.1680776 0.18387116 -0.35089132 0.15033616 -0.20049255 -2.5313482
mire 0.110973105 -0.9848461 0.21135943 0.198918 -0.6573282 -0.57248247 0.5589562 -0.2707536 -0.5376574 0.36519375 0.4192252 -1.1405151 0.111844085 0.79441535 0.48461047 0.024205953 -0.35300353 -1.8074554 -1.3411957 -0.23821735 -0.7035442 -0.5026804 -1.719539 -0.65623915 -0.42363748 1.2483653 0.67117083 0.36026534 0.2878554 1.2196488
trabajo -1.1070688 0.6201542 -0.4969494 -0.21178524 -0.22414649 -0.67965996 0.45703107 1.3315684 -0.9444224 0.32194737 1.2267231 -0.39333227 -0.73464465 -0.99209124 -0.4039958 -0.47288913 -0.020215068 0.23579814 -0.3897905 0.24273697 0.19130701 -2.22757 -0.50908035 -1.043737 0.57024574 -0.8590883 0.42125207 -1.5678958 -0.052784268 0.2856794
necesita -0.5939025 -2.211131 -0.73277247 0.018113978 0.6030206 -0.7409458 -0.44748318 -0.27091783 0.54221016 0.30412638 1.146228 0.7118471 -0.468613 0.31654292 -0.22614035 -0.98907244 -0.37543693 -0.95063376 -0.022509824 -1.1831557 0.85207176 0.02568981 -0.255131 0.49204233 -0.3183383 -0.6130879 -0.8192403 -0.36349976 -1.5054132 1.1219558
recuerda -0.51104105 0.34396097 0.442494 0.7361347 1.1153558 -0.19046293 0.70317054 -1.1873108 -0.43872616 -0.288504 0.50014514 -0.9119283 -0.1105011 -0.41791552 0.24324061 0.6198965 0.1914012 0.41500577 0.7177354 0.12705347 -1.3957489 1.5819709 -1.8120017 0.80532926 -0.36219335 -0.14406715 0.39816904 0.09924463 0.6941987 -0.17358774
inicio 0.37918815 -1.5613085 0.74300575 -0.27053383 -0.6307056 0.60491073 -0.3718377 1.6333567 -0.43295124 -0.97552663 -0.3227661 0.5346953 -0.040932152 0.08151812 0.53438777 -0.4157578 -1.1720715 -1.6191465 -0.6206119 -0.74085283 0.5970637 1.3592156 1.5184705 -1.2027584 0.92351633 -0.36988717 0.00512652 -0.33150214 0.2664275 -0.6211542
gmes -1.0754505 -0.014773121 -0.6163108 -2.617528 -0.8039894 -0.21201637 1.8036824 -1.1508806 -0.6968229 -1.880839 1.365487 -0.7650392 0.19473512 1.4808601 0.96117735 0.3168358 -0.23588623 -1.582746 -1.240926 -1.3531446 1.4047445 0.62146527 1.2528013 -0.2294311 -0.06734415 0.6641537 -0.11026734 1.4984949 -0.29178846 -0.9555476
carga -0.06715839 0.73992884 1.0161271 0.11022029 0.13050696 -0.5676447 1.0755152 -0.6539214 -0.48188832 -0.99948585 2.2942715 -0.01533515 2.8231432 -1.0415199 1.0196608 -0.90958506 1.0705456 0.38397303 -0.5056662 0.20042962 0.22590472 1.747922 0.12255843 -1.4679179 -1.8639214 0.5346616 -0.3680301 -0.3653666 -0.73388654 1.0695313
noches 1.9632255 -1.6237549 -1.0553263 0.394723 -0.36645615 -0.7670536 1.397532 0.08333349 0.12814745 -0.15251724 1.3122034 0.22638543 0.9618986 -0.30745625 2.2078283 1.2371318 -0.085759014 0.5501157 0.8879613 0.65587723 0.2784253 1.9383018 0.24799907 0.37436065 1.1083987 -0.853041 2.393443 -0.2529728 2.9757724 -2.9962354
sistemas -0.39175794 1.1657383 0.8519582 0.31227902 0.8121245 -0.34674427 1.5625606 0.8277689 0.5915991 -1.4396691 2.1756277 -1.126026 -0.046705518 -0.015421606 1.855996 0.83701605 0.20223773 0.4100856 0.17705487 -0.49082312 1.4528308 0.7040672 0.5339201 -0.3127295 -0.95869035 -0.9557166 1.3574541 1.1741276 0.3710897 2.1932468
muchos 0.8960007 -0.46435976 0.44779262 0.47686133 -0.7202914 0.5475556 0.636795 0.29990265 0.12877971 -0.6368272 0.7769516 -0.23023053 -0.6614615 -0.93833095 0.99632245 1.4589293 -0.09819275 0.7819247 -1.1292928 1.0634227 0.08642142 0.5358306 1.6325179 -0.3136136 0.28797093 0.3735013 0.48353076 -0.93124354 -0.018510886 0.5750263
creacion -0.72722256 -0.067311354 -1.0630585 -0.68547094 1.471515 0.95199114 1.5211022 0.24353391 -0.5359479 0.32533905 0.17433214 -2.3801062 -0.9703534 0.847463 4.047803 1.4515307 0.9569837 -0.5616237 2.1653323 1.6987945 0.64682287 0.36675882 -0.42935765 0.8364822 0.73833066 1.3973112 0.5983313 1.2310871 -0.8261477 1.1082488
comunica -1.3656893 -0.2430692 -0.62301916 -1.0299653 -0.60195255 1.2300637 0.2750013 -0.35967377 0.5229308 0.81114686 0.027441788 -0.644657 1.1791795 1.4456692 -0.13935116 -0.32299283 0.76288766 -0.031068992 1.2564892 1.54497 -1.9882566 0.28413293 0.7001785 -2.003435 -0.6988996 -0.85959625 -0.5996795 -1.1593891 0.27065018 0.1009552
error 1.4694077 1.7340157 -0.4942626 -2.0097125 0.98794967 1.6568451 0.8004584 -0.630961 -0.21059875 -1.4740751 1.2678068 -0.23167297 -0.2989394 -0.7145802 1.4429789 -0.6151785 1.4935768 -0.8746442 1.0314642 0.6136363 1.4538962 -1.5985496 1.6302574 -0.7739545 -2.5900812 -0.7124054 -0.27514136 0.9477224 -0.64176613 1.5331368
aparte -0.27291518 -1.8308864 -0.17074029 0.4646181 0.8775933 -0.36843273 -0.37858328 0.4636885 1.0744963 -1.5765418 0.933098 -0.5409833 -0.5815465 0.30400443 0.47745895 -0.8555208 1.63272 -1.7060413 -1.5129333 0.9061182 1.7737725 0.18237275 1.7697475 -0.73977184 -1.5571146 0.17694995 0.8276134 1.0297204 0.027254304 -1.9294436
feliz -0.50297195 -0.5042326 0.8647781 -0.792092 -0.5022046 -0.86016446 0.26991338 -0.033840686 0.7963417 -0.84612864 2.967397 0.03146405 -0.33676043 0.34269086 0.36459395 1.1339407 -0.1909637 0.3877849 -2.0992198 0.10267643 0.25496292 0.6440149 -1.1825203 -0.60554487 -1.5823919 -0.06670159 -0.102939345 -1.3163037 2.0134532 -0.25262564
tales 1.1874181 -0.07245114 -0.77162987 1.1286911 -0.06867389 0.11312488 -0.48437986 0.76959187 -0.44999516 0.030587714 1.3660522 0.30684698 -0.28581473 0.1664527 1.0784879 -1.2153986 -0.5499473 -0.5707158 -0.6303602 0.29074663 0.2425811 0.52805364 -0.026346736 -0.93543774 -0.3243059 -0.9297767 0.21948954 0.8704311 0.5822973 1.3864379
bebe -1.7417347 1.0091472 -1.3763515 -0.46774998 0.09411791 1.1998584 -1.0492761 -1.0221319 -2.994203 0.3147356 0.28851232 -0.34004858 -2.5532217 -0.35764852 0.38048458 -0.1659409 1.6961997 -1.0928175 2.0826445 0.17581387 1.6479098 0.30916727 0.9030911 -0.52148753 0.72978544 0.088410236 0.6173024 -0.13173237 -0.6339087 -0.577129
cargo -0.60052574 0.4912206 -1.3612988 0.6659427 -0.77297866 -0.4379396 -0.4830089 -1.585773 -2.213315 0.38233835 0.49492487 0.43363762 0.3461207 -0.7370536 2.550984 -1.2592745 0.4818853 -0.4126868 0.6980518 1.1843959 0.7536048 0.357746 0.37223092 -0.6328493 -0.44237602 -1.6694964 0.71176887 0.4111417 0.64049685 -0.5524132
aprobar -0.6939155 2.1354253 1.764951 -1.7687898 2.1981635 -0.05551036 0.51811373 -1.8850535 1.7404712 -5.0233083 -0.6235176 -0.9182946 -2.7006056 -0.5900009 0.9947961 1.0566597 1.1307425 -2.3990965 -0.012330663 -0.000678716 -0.36735386 4.008101 0.76566404 -0.3325245 -1.349831 2.1997905 1.9802396 2.115177 -1.3736333 -2.5552921
cree 0.969221 -0.54685843 0.25689682 -0.5809841 0.28007787 -0.6380752 -0.2213357 -0.043060075 -0.26923117 -0.8513403 0.5915407 -0.5011987 -0.6573623 0.83659023 -0.1483515 0.7236899 0.6463764 -0.80339915 -0.26421234 -0.5810903 0.56831235 0.19537336 -0.7265946 -0.24116558 0.3155739 0.23275635 -0.0697218 0.25242323 -0.5392342 -1.1562659
pase -0.81702936 -0.6583465 0.2521249 -0.17297047 -0.6676908 -0.28524542 -0.40439314 -0.31649 -0.46197754 -1.2495466 1.6539758 -0.23289147 -0.77571535 0.14002381 -0.41012484 0.28752458 -0.39970756 0.48125532 0.100899085 -0.9205105 0.3001243 0.2453586 0.21925464 0.6044191 0.06874972 0.1359597 0.8604742 -0.46278742 0.21335691 1.7342428
mano -1.8949379 -1.3467716 1.1747633 1.2455804 -0.9727642 -1.0278207 -0.475892 -0.7415466 -1.1621884 1.6563987 1.7801138 -1.0860862 -0.44879967 -0.95534235 -1.059983 0.44726378 0.49283773 -1.7659047 -0.3773474 0.047005694 0.82810766 -0.43981278 0.90348285 -0.55593073 -2.011498 -0.10649255 0.4163548 -0.9757207 -0.37792498 0.409158
sigue -0.374691 -0.12585603 -0.26043144 -1.6422025 0.7511925 -0.033373382 0.49108794 -0.13953464 -2.0040092 -0.95436937 0.11871632 0.56897646 -0.92076 -0.18650246 -0.028403176 -1.1201651 0.3418837 0.095690936 1.0087899 -1.2383568 0.22021666 1.0253003 -0.45707074 0.45729813 0.1000734 -0.37177265 -0.4316202 -0.34600246 -1.4672667 1.1579171
consecutivos 0.9616713 1.6579574 -1.4363114 1.2999191 0.36262453 -1.7981431 -1.6970195 1.3844614 1.2966444 0.70982987 -0.2284215 0.14182855 0.54668397 0.40614 -0.3115265 -1.7886678 2.1293893 -1.2009441 -0.27134418 -1.1611418 -0.78084594 0.72771597 1.475494 -0.9961741 3.120884 -2.3486228 0.40777853 -0.6546504 -1.8458918 2.1161556
bajo -0.7071093 -1.6520683 -1.296687 -0.5920345 0.8468473 -0.69532204 0.7171949 0.8321279 0.54328215 0.515221 0.63799477 -1.735289 0.5273628 -0.96978825 -0.5364442 1.8242844 -0.29917324 -0.31484905 -0.72141266 0.5201385 1.1499354 -0.42262328 1.7254742 -1.0043063 0.4429039 0.7162165 -0.1273091 -0.33064976 -1.4955233 -0.15112671
companera 0.6835386 -0.8861155 0.6983014 -2.976967 -0.29147327 0.12116733 1.8868542 -0.17272668 0.00085593364 -0.65625083 2.2710462 -1.4776226 0.23892727 1.6206815 1.6821047 0.24832335 -1.0823474 0.05648444 -0.9656435 1.2241372 0.2563546 -0.6172879 0.6528599 0.048193004 -1.7074416 -0.14287342 -0.17494236 0.13260315 -0.06699276 -1.3594552
viste -0.21369922 -1.7624798 -0.8444344 0.21655749 -1.264316 -0.67680836 0.016540105 0.7720245 0.50062156 -1.2785134 0.14247285 -0.77933925 -0.6940039 1.0419704 -0.9941189 -0.41417226 0.023846544 0.15366049 1.1837596 0.5081022 -0.46631038 1.1560065 -0.565714 0.303702 -0.054795247 0.21638924 -0.365357 1.0986968 -0.35692272 -0.65764976
comenzo 0.2588372 1.4182594 -0.25416216 0.0062635196 -1.6053671 1.099236 -0.2221547 -0.7275656 1.1744936 0.5380494 -1.3652664 -2.7164214 -0.78352845 -0.33028242 -0.25338805 0.898543 0.51816845 0.4004168 1.2564632 0.6904043 -1.1965774 -0.3624694 0.9655815 -1.1424326 1.1104573 0.6785502 0.96720725 -0.19166322 0.012802883 -1.4636657
